float w1[32][784] = { { -0.052263226360082626, 0.07658683508634567, -0.05806285887956619, 0.034626830369234085, 0.013288465328514576, -0.015909818932414055, 0.0004626144655048847, -0.06729188561439514, -0.03769081458449364, -0.0570305772125721, 0.015277290716767311, 0.0800049677491188, 0.2778809666633606, 0.4522603154182434, 0.1667490452528, -0.004543938208371401, -0.05032621696591377, -0.07483085244894028, -0.06028515473008156, -0.03215525671839714, 0.03147268667817116, 0.07018928229808807, 0.049036748707294464, -0.06627587229013443, 0.0680578202009201, 0.07230905443429947, -0.024925727397203445, 0.08409672230482101, 0.02777484804391861, -0.07085714489221573, -0.05293681100010872, 0.04308459162712097, 0.25895828008651733, 0.24156151711940765, 0.6580287218093872, 0.5983859300613403, 1.558830738067627, 1.7204099893569946, 3.0830845832824707, -1.5582681894302368, -2.066774845123291, -1.1909605264663696, 0.9189416766166687, 1.515252947807312, 1.7393014430999756, 0.7752704620361328, 0.8549923300743103, 0.8425486087799072, 0.5353205800056458, 1.3172416687011719, 0.8908498287200928, 0.5899363160133362, 0.012164403684437275, 0.025351502001285553, 0.030287722125649452, 0.053427934646606445, -0.07955498993396759, 0.056897785514593124, 0.4776283800601959, 0.1864861696958542, 0.8901238441467285, 0.6727902293205261, 1.5388164520263672, 2.23664927482605, 1.5151289701461792, 6.636309623718262, 9.350505828857422, 7.343367099761963, 4.566660404205322, 1.6646604537963867, 5.50126314163208, 2.7625350952148438, 0.5909633636474609, -1.724224328994751, -2.766425132751465, -1.058189868927002, -2.0259323120117188, -1.833400011062622, -1.266913890838623, -0.2532893419265747, -0.3500029742717743, 0.5251876711845398, -0.07133272290229797, -0.078913114964962, 0.08370048552751541, 0.05439796671271324, 2.4107306003570557, 1.202161192893982, 1.1141817569732666, 5.388307571411133, 4.723674774169922, 2.7478930950164795, 0.6522659063339233, 3.0083491802215576, 4.327298164367676, 6.012475490570068, 6.437132358551025, 0.7679067850112915, 1.817916750907898, 1.0017096996307373, 1.0562869310379028, 0.3204585313796997, -2.3920018672943115, 0.47971510887145996, 0.3086574375629425, -5.245555877685547, 0.36521512269973755, -0.7839803695678711, 1.5956358909606934, 0.9028565883636475, -0.04995211958885193, -0.07699061930179596, 0.04604246839880943, 0.5924299955368042, 3.421257734298706, 4.753887176513672, 3.7847983837127686, 2.900690793991089, 2.8109829425811768, 1.583522915840149, 0.7468965649604797, -0.44005873799324036, 0.29827338457107544, -0.2809385359287262, 2.2758374214172363, 1.316130518913269, -0.04849293455481529, 1.7684468030929565, 0.9119583964347839, 2.019458770751953, 2.019247055053711, -0.062210723757743835, 1.4163157939910889, -0.39213645458221436, -1.3759000301361084, -4.358729839324951, -1.4900367259979248, -0.5311083793640137, 0.18996109068393707, -0.049995679408311844, 0.07758816331624985, 0.04619263857603073, 5.084957122802734, 2.260774850845337, 3.384561538696289, -0.5905032753944397, 2.111131429672241, 2.657858371734619, -0.18077269196510315, 0.5417550802230835, 2.5820565223693848, 0.09247728437185287, 1.3464946746826172, 1.2485674619674683, 0.3944415748119354, 2.1115617752075195, 0.3909068703651428, -0.20614682137966156, 0.09698419272899628, 0.759375274181366, -1.4504767656326294, -1.278008222579956, -1.9634175300598145, -7.008937835693359, -4.955628395080566, -1.0269198417663574, -0.27106988430023193, -0.6526252031326294, -0.015094643458724022, 0.5523873567581177, 0.9124100208282471, 1.5334810018539429, 2.6264355182647705, 3.0419728755950928, 1.6591112613677979, -0.09243757277727127, -1.134596347808838, -0.4523610770702362, -0.25525304675102234, 0.7244622111320496, 0.34553930163383484, 2.7607593536376953, 1.573358416557312, -0.8463444113731384, -0.2492593377828598, 0.04149213805794716, 1.6552269458770752, -0.5784360766410828, -1.095771312713623, 0.8007693290710449, -3.1202359199523926, -7.560877799987793, -5.863632678985596, -4.76137638092041, -3.6772186756134033, -3.5771117210388184, 0.14470519125461578, 6.349572658538818, 0.42493852972984314, 3.2639098167419434, 4.349942207336426, 3.0113279819488525, 1.9601024389266968, 0.1943422555923462, -0.31710076332092285, 0.0651596337556839, 0.369547575712204, 2.7684872150421143, 0.4461245536804199, 1.068346381187439, 2.0428760051727295, -0.6620891690254211, 1.279281735420227, -0.07036259770393372, 0.04364444687962532, 0.7876505255699158, 0.18063434958457947, -0.3988352417945862, -2.676093101501465, -4.404959678649902, -3.5763418674468994, -3.5562446117401123, -3.099118947982788, -1.7381010055541992, 0.43678659200668335, 5.29243278503418, -2.484029769897461, 4.381998062133789, 7.7352399826049805, 2.709031105041504, 0.2418811172246933, 1.379971981048584, 0.8626648187637329, 1.5235544443130493, 2.339761972427368, 0.2199242264032364, -2.6758809089660645, -3.4213039875030518, 0.4319157302379608, 0.18496021628379822, 1.0215963125228882, 0.794282078742981, 0.0003045578778255731, -1.3569022417068481, 0.3120984137058258, -0.28570398688316345, -1.1106361150741577, -6.081450939178467, -3.8020176887512207, -5.46935510635376, -1.2777056694030762, -0.6607188582420349, 1.751896858215332, 4.459846496582031, -1.092248797416687, 3.4768776893615723, 4.697571277618408, 1.4721193313598633, -0.5479996800422668, 1.470363974571228, -0.558394730091095, -1.3443557024002075, -5.798410415649414, -6.945888519287109, -6.350710868835449, -2.9082577228546143, 0.4510839581489563, 1.4947715997695923, 2.39892315864563, 0.24719515442848206, 1.4724730253219604, 0.6725390553474426, -0.23046165704727173, -0.11823328584432602, 0.10863462835550308, -2.8590426445007324, -5.995630264282227, -3.7244834899902344, -2.6942923069000244, -2.475471019744873, 1.741477131843567, 3.2091708183288574, 6.076662063598633, 0.034596264362335205, -4.3848772048950195, -3.2530925273895264, -6.646922588348389, -8.61938190460205, -12.532510757446289, -11.050536155700684, -8.262223243713379, -2.718153238296509, -2.019871473312378, 0.24673239886760712, 1.6969579458236694, -0.6052992343902588, 3.269639253616333, -1.114930272102356, 2.4771881103515625, -0.10955063253641129, 1.1032787561416626, 0.7773764729499817, -0.9540185332298279, -1.3772388696670532, -6.502462863922119, -1.9014348983764648, -0.05797553434967995, 1.2058367729187012, 0.42255109548568726, 2.813790798187256, 0.4797222912311554, -2.014186143875122, -5.985941410064697, -9.638833999633789, -9.811775207519531, -6.766188621520996, -3.7530553340911865, -0.690667450428009, -0.44051167368888855, 0.5700942277908325, 1.6430302858352661, 1.7110950946807861, 2.408144950866699, 0.7009141445159912, -1.0625152587890625, -1.2124911546707153, 0.3727472722530365, 1.0436075925827026, 1.027750849723816, -1.9366254806518555, -3.675041437149048, -3.0345208644866943, -1.0063807964324951, -1.1674569845199585, -0.15868453681468964, 1.5162814855575562, -0.1470993608236313, -1.1463398933410645, 1.879067063331604, 0.4101516902446747, -1.5813655853271484, -3.5276410579681396, -5.123164653778076, -1.7097280025482178, 0.637840211391449, 1.2640072107315063, 2.789879560470581, 3.539670944213867, 1.9854974746704102, 0.9827439188957214, 1.2645115852355957, -1.7218972444534302, -0.7116214632987976, -1.9821131229400635, -3.174506664276123, -2.8608076572418213, -0.5864399075508118, 0.27226829528808594, -2.0718371868133545, -3.4127159118652344, -3.3683695793151855, 0.5716648697853088, -1.7012356519699097, 0.21268710494041443, 0.05627544969320297, -1.8448036909103394, 1.0468488931655884, 2.602647542953491, 2.217059373855591, 3.8446621894836426, 2.051490306854248, 0.7442647218704224, 1.3279221057891846, 2.0020177364349365, 2.4770638942718506, 0.8199948668479919, 0.958146333694458, 1.2374372482299805, 0.4333614408969879, -0.7386642694473267, 0.39673733711242676, -0.9831914901733398, -0.6694740653038025, -0.14156745374202728, -1.3871126174926758, -0.7316005825996399, -4.717946529388428, -0.48370498418807983, 1.1369448900222778, 0.355834424495697, -1.0282623767852783, 0.7009434103965759, 0.1072205901145935, 1.30207359790802, 3.1322154998779297, 4.494767189025879, 1.2055877447128296, 2.5173611640930176, 0.10441219806671143, 1.8130768537521362, 1.3406376838684082, -1.406739592552185, -2.4905333518981934, -0.18438385426998138, -0.10540904849767685, -0.6989935040473938, 0.3038797974586487, -1.8298619985580444, -1.6131892204284668, 0.2553951144218445, -1.2310000658035278, 0.1557827740907669, 1.508695125579834, 0.1600443422794342, 0.5710264444351196, -1.1301404237747192, 2.5883665084838867, 1.8463352918624878, 4.221874237060547, 1.2773758172988892, 0.09011419862508774, -0.8515905141830444, 0.24501001834869385, 0.6473592519760132, -1.0570954084396362, -0.8063861131668091, 0.8080164194107056, -1.1657003164291382, -1.258612036705017, -1.8076746463775635, -1.7359075546264648, 0.1004570722579956, -0.3339104950428009, 0.8473619818687439, -0.07763426005840302, -1.419763445854187, 0.05088697746396065, -1.0803810358047485, -0.7825108170509338, -0.5937987565994263, 1.845789909362793, 1.1253191232681274, 0.17687205970287323, 0.9448640942573547, -2.703883171081543, 0.10037311166524887, 5.841487884521484, 3.703821897506714, 0.26737216114997864, 0.17503011226654053, 1.3560357093811035, 0.1513681262731552, -1.0110266208648682, 1.055288553237915, -1.2160223722457886, -0.379938542842865, -1.0530744791030884, -1.0367895364761353, -0.40835508704185486, 0.6409687399864197, -0.4525194466114044, -0.5592878460884094, -2.2583425045013428, -2.9655041694641113, 0.6606215834617615, -1.1480307579040527, 0.82820725440979, 0.871444046497345, -0.031870558857917786, 0.5467736721038818, 0.011442959308624268, 1.8465887308120728, 2.3069794178009033, 3.213014602661133, 3.3291733264923096, 4.438407897949219, -0.020683100447058678, 0.8876790404319763, 0.9999315142631531, -0.9840167760848999, -2.7657718658447266, -0.6813724040985107, -1.9871348142623901, -0.46327629685401917, 0.9008150696754456, -1.8166160583496094, -0.8140968680381775, -0.7963605523109436, -1.685377836227417, -0.16529284417629242, -1.7538330554962158, -1.3154433965682983, -1.2117505073547363, -0.6464105844497681, -0.503781259059906, 0.34698474407196045, -1.8649170398712158, -0.5931617617607117, 2.2017600536346436, 0.05981975421309471, 0.8370389938354492, 1.8388850688934326, 2.0819690227508545, 5.662739276885986, 1.8574060201644897, 2.3368308544158936, 2.4688384532928467, 1.7784388065338135, 0.17126968502998352, 2.07348370552063, 1.7743523120880127, 0.1810649186372757, 0.48619702458381653, -0.3162551820278168, 0.3339255452156067, -0.21461880207061768, -0.36441394686698914, 0.31196141242980957, -0.6007606983184814, -1.998059630393982, 0.4535740911960602, 0.41646239161491394, 0.6041972637176514, 0.9348607063293457, 1.7681615352630615, 2.1499786376953125, 2.659515380859375, -0.022351134568452835, 1.4604154825210571, 4.10651159286499, -0.1207728460431099, 5.36155891418457, 0.573336124420166, -1.5195794105529785, -0.8659024834632874, 3.7891194820404053, 0.4587591588497162, 1.6949176788330078, 0.03432685509324074, 0.6287708878517151, -1.745470404624939, -1.034959316253662, -1.20556640625, 0.6862845420837402, 0.024411410093307495, 1.202727198600769, -0.30387404561042786, -1.3149464130401611, -0.18213391304016113, 0.06231746822595596, 0.19841040670871735, 0.4772932827472687, 0.22298476099967957, 1.230158805847168, 1.9628239870071411, 0.29177820682525635, 1.6610780954360962, 2.197234630584717, 1.200432300567627, 4.33341121673584, -0.07412312179803848, -2.139617681503296, -1.7361042499542236, 0.47705015540122986, 0.4711781442165375, 0.43269506096839905, -1.7663565874099731, 0.019377516582608223, -0.5522853136062622, 0.19234153628349304, 0.548268735408783, -0.7055109739303589, 1.3163617849349976, 1.1958600282669067, 1.2870869636535645, 0.756563663482666, 0.2450171858072281, -0.4622291922569275, -0.5322368741035461, -0.3790532052516937, 0.25214657187461853, 0.9213598966598511, 0.11861080676317215, -3.7762982845306396, -0.21092742681503296, 0.7830100655555725, 1.8538843393325806, 0.2354646474123001, 2.528064727783203, 4.817941188812256, 0.970403790473938, -4.048553466796875, -0.24395962059497833, -0.5129123330116272, 0.829318642616272, -0.3971481919288635, -1.777453899383545, -0.8337636590003967, 1.3207604885101318, 0.6677383780479431, 0.6576371192932129, 1.0300670862197876, 0.14680971205234528, -1.1690244674682617, -0.043298956006765366, -0.04455962032079697, 0.6724835634231567, 0.05494174733757973, -1.2542623281478882, -2.137004852294922, -1.7749632596969604, -0.10719775408506393, 0.5053223967552185, 3.8353354930877686, 0.9500391483306885, 0.1664479523897171, 2.510732412338257, 3.3232169151306152, -0.5730894207954407, -3.2296836376190186, -0.14864780008792877, 0.12869411706924438, 1.1384509801864624, 0.8538817167282104, -0.13691481947898865, -0.3915001153945923, -0.4900166392326355, 0.6698376536369324, -1.3517526388168335, -0.12625665962696075, 0.10150253027677536, 1.3796594142913818, 0.4386225938796997, -0.8716636300086975, 1.7278319597244263, 0.14425472915172577, 0.6459953188896179, -3.2836496829986572, 0.6707677841186523, 3.2811357975006104, -0.0849185660481453, 0.8639153242111206, 4.201294422149658, 0.10993152111768723, 0.0035583563148975372, 0.04216591268777847, 3.5120368003845215, 5.321667194366455, 3.5774760246276855, 2.9234135150909424, -0.05760590732097626, 0.5009441375732422, 0.12323495000600815, 2.400092363357544, 1.4807088375091553, 1.2002434730529785, 0.521847128868103, -0.09150800108909607, 0.6855273246765137, 0.7691450119018555, -0.7373664975166321, -1.6345003843307495, -0.008559109643101692, -1.0740644931793213, -2.971510887145996, 1.2156846523284912, 1.5535074472427368, 4.188180923461914, -1.2468006610870361, -0.957846999168396, 5.883305549621582, 0.029889274388551712, -0.06357216089963913, 0.08085566759109497, 0.03475912660360336, 2.609595775604248, 4.021501541137695, 1.610071063041687, -1.6279932260513306, -0.6336931586265564, 0.09710481762886047, 2.0167415142059326, 2.048720121383667, 1.1346142292022705, -0.9790104627609253, -0.11187604069709778, 1.2011102437973022, 1.3671778440475464, -1.1087042093276978, 0.024267150089144707, -0.7105236053466797, 0.8449525237083435, -1.1530789136886597, 0.1681319922208786, 1.0236213207244873, 2.4401040077209473, 1.471961259841919, 0.32815924286842346, 0.32753852009773254, 0.0027882743161171675, -0.019284563139081, -0.028434693813323975, 1.5417969226837158, -1.485774040222168, 4.5472564697265625, 2.0867576599121094, 4.197106838226318, 0.17861317098140717, 2.095712423324585, 0.3828355073928833, -0.039277177304029465, 0.6262429356575012, 4.285704612731934, 2.253201484680176, 0.4051925241947174, 1.448974370956421, -0.9526570439338684, -1.5717744827270508, -0.04038982465863228, 1.715547800064087, -0.09072504192590714, -0.7781866192817688, 0.8733782172203064, -0.14503048360347748, -0.16982592642307281, -0.06082701310515404, -0.07890307903289795, 0.000823956448584795, 0.037170521914958954, 0.013568276539444923, 0.045569561421871185, -0.2311069816350937, 0.40242496132850647, 4.539231777191162, 5.016252040863037, 1.8910492658615112, 1.8649238348007202, 2.056593656539917, 3.388314962387085, 1.978684425354004, 4.841394424438477, -0.046173468232154846, -4.505259037017822, -0.24765919148921967, 3.492725372314453, 3.912571907043457, 3.901632785797119, 2.528735637664795, 0.7877684235572815, 1.0408782958984375, 1.4752511978149414, 1.8767503499984741, 0.01722651720046997, 0.014837170951068401, -0.07616602629423141, -0.015737328678369522, 0.004556981846690178, 0.00722682848572731, -0.02242107130587101, 0.060700442641973495, 0.0846586674451828, 0.11536655575037003, -1.1902025938034058, -1.4236118793487549, -1.6690196990966797, -1.088026523590088, -1.2436668872833252, -1.8614089488983154, -1.6169229745864868, -1.0988438129425049, 1.2458897829055786, 1.3918209075927734, 0.6954538822174072, 0.4337187111377716, -0.3440486490726471, -0.09926912933588028, 0.07772179692983627, 0.12248782813549042, 0.0451858714222908, 0.016009943559765816, -0.07211016863584518, -0.009567651897668839, -0.03639735281467438, 0.07093402743339539}, {0.08186495304107666, -0.00590296508744359, 0.03242962807416916, -0.08421481400728226, 0.08359941095113754, -0.0087814312428236, -0.08299334347248077, 0.07579023391008377, -0.07078049331903458, 0.002894375240430236, -0.05090883746743202, -0.03833455592393875, 0.11932377517223358, 0.32087641954421997, 0.24572254717350006, -0.005237703211605549, 0.03267057240009308, 0.01098470576107502, -0.010410567745566368, 0.003922659903764725, -0.08427637815475464, -0.012108719907701015, -0.0842704325914383, -0.008199737407267094, 0.07200885564088821, 0.02740645594894886, 0.051964495331048965, 0.07000749558210373, -0.057249054312705994, -0.06097155436873436, -0.032395586371421814, -0.04617873951792717, 0.08420468866825104, -0.3861425817012787, -2.0110061168670654, -1.9975117444992065, -0.5055971145629883, -1.7281759977340698, -2.181429147720337, -0.24687692523002625, -0.6581064462661743, -0.3930600881576538, -1.0026721954345703, -3.710081100463867, -4.726284980773926, -4.895860195159912, -4.353855609893799, -3.2816238403320312, -4.672506332397461, -3.313120126724243, -5.345407485961914, -5.101152420043945, 0.0733318105340004, -0.04147543013095856, -0.019135521724820137, -0.0783376470208168, 0.0048284814693033695, -0.033695563673973083, -0.3540310561656952, -5.402928829193115, -6.088864326477051, -0.34791234135627747, -2.9010305404663086, -3.037785530090332, -3.3842475414276123, -3.6576485633850098, -4.417393207550049, -4.456770420074463, -3.172734022140503, -5.437592029571533, -7.8692426681518555, -2.25907039642334, -2.8136775493621826, -0.14445947110652924, -0.7257224321365356, -4.725375175476074, -6.5142669677734375, -3.510697603225708, -4.530994415283203, -6.116900444030762, -1.3637216091156006, -1.0120631456375122, -0.050883159041404724, -0.0039010467007756233, -0.051265645772218704, -0.06144927442073822, -0.3233509659767151, -5.924837112426758, -4.491988182067871, -1.718108057975769, -5.557604789733887, -9.735664367675781, -12.5454740524292, -12.577799797058105, -8.463106155395508, -6.57094144821167, -9.126229286193848, -9.500958442687988, -4.142795085906982, -1.170388102531433, -2.6092021465301514, -1.6409615278244019, -0.6399495601654053, -2.6643354892730713, -2.962460994720459, 2.141000509262085, 0.7647169232368469, -5.7166056632995605, -6.850854873657227, -4.360223770141602, -1.7634689807891846, -0.017524678260087967, -0.024608952924609184, 0.12108852714300156, 2.8368234634399414, 3.9345316886901855, 1.5542274713516235, 0.2470620572566986, -3.6709582805633545, -0.41546812653541565, -2.56839919090271, -5.781828880310059, -5.713165760040283, -1.5474522113800049, -1.132930874824524, -3.295783042907715, -1.256026029586792, -0.39617475867271423, -0.7412270903587341, 0.7042043805122375, 0.9181140065193176, 2.4618489742279053, 0.06390222907066345, 0.43024903535842896, 0.506364643573761, -1.2131764888763428, 2.397531270980835, -2.3514795303344727, -3.0524468421936035, 0.9994049072265625, -0.08444401621818542, 0.029322102665901184, -1.3639881610870361, -0.9948539733886719, -3.797041177749634, 2.8250250816345215, -0.9991399049758911, -0.5062171220779419, 2.7173166275024414, 0.6701343059539795, -1.1319364309310913, 1.5015088319778442, 2.2306151390075684, -1.765791654586792, -0.889057457447052, -0.679384171962738, -2.546894073486328, -0.4368259012699127, -1.9209879636764526, -1.2483644485473633, -1.061225175857544, -2.1549553871154785, -1.0474789142608643, -2.5572264194488525, 0.7541717886924744, 2.5920886993408203, -2.16253662109375, 0.7080209255218506, 0.021670026704669, -2.1686270236968994, -0.5754457116127014, -1.031118631362915, 0.42402851581573486, 4.1438307762146, 1.4086668491363525, -0.07044950127601624, 1.7598577737808228, 1.2248485088348389, -1.0914541482925415, 0.24698732793331146, 0.4656005799770355, -1.0784051418304443, 0.5728511214256287, -0.6934885382652283, -0.6747316718101501, 1.3690659999847412, -1.595009207725525, -0.052018918097019196, 1.0778712034225464, 1.8188143968582153, 1.221152424812317, 1.212565302848816, 0.13072653114795685, 3.269209146499634, 2.2208127975463867, -1.0593960285186768, 0.21739961206912994, 1.2150979042053223, 3.163703680038452, 3.3874759674072266, -1.102552056312561, 1.1661207675933838, 1.6813760995864868, 1.7065973281860352, 0.07521403580904007, 1.0794068574905396, 0.010302156209945679, 0.4671086072921753, -2.691657543182373, 2.1208086013793945, -1.6407283544540405, -1.7169549465179443, -1.2858667373657227, 1.697616696357727, -0.1493026316165924, -0.3519434928894043, 1.740706443786621, 1.1082311868667603, 0.613469123840332, 4.826504707336426, 0.6781895756721497, 0.9431400895118713, 1.32766854763031, -3.5498545169830322, -3.706923484802246, 1.4775073528289795, 4.3896942138671875, 4.032238960266113, 0.8837419152259827, 1.030747413635254, 3.0175414085388184, 0.9710108041763306, 2.9945781230926514, 2.1267480850219727, 1.0126516819000244, 0.8610894680023193, -0.5733101963996887, -0.36031267046928406, 0.3477385342121124, 0.7752861976623535, 0.00746785756200552, -0.030299445614218712, 2.4002792835235596, 0.3244016468524933, 2.0052497386932373, 2.0503618717193604, 0.7852168083190918, 2.1412088871002197, 4.890571117401123, 4.650834560394287, 2.5334272384643555, 0.9977694749832153, 2.295013666152954, 6.186990261077881, 0.5322559475898743, 0.449590265750885, -0.32031285762786865, 0.36434900760650635, 2.609983444213867, 1.0070772171020508, 2.162386178970337, 0.5802514553070068, 1.1353013515472412, -0.8364952802658081, 0.8885360956192017, -0.29770392179489136, 0.7417023777961731, 0.776757538318634, 0.9923055768013, 1.4780324697494507, -0.2922646999359131, 0.5820757150650024, 0.964737057685852, 1.492203712463379, -0.1692299246788025, 1.9876525402069092, 2.9223546981811523, 4.694453239440918, 3.6466012001037598, 1.7892274856567383, 2.1955761909484863, 7.540075778961182, -0.8523785471916199, -1.1496737003326416, 2.3342347145080566, -0.8663030862808228, -0.1203702837228775, 0.15849849581718445, 0.8004659414291382, 1.9407097101211548, 0.3577093482017517, -0.8464431166648865, 1.1417309045791626, -1.965747594833374, -1.0604866743087769, 0.3517811596393585, -0.14859068393707275, 0.5198656916618347, 0.8080881237983704, -0.2976128160953522, 0.2726290225982666, 0.6456050872802734, 2.4122097492218018, 0.09919216483831406, 1.9905019998550415, 3.7122910022735596, -0.24901831150054932, 4.3640522956848145, 1.8739807605743408, -4.997443675994873, 5.1772661209106445, 3.3610925674438477, -0.16593603789806366, -0.6433115601539612, 1.212762713432312, 1.6636271476745605, 1.2876185178756714, 2.0892255306243896, 2.072697401046753, 0.959935188293457, 1.3943934440612793, -2.7514259815216064, -0.7708830237388611, 0.6700868010520935, 0.23501421511173248, 1.870121955871582, -0.5474446415901184, -0.04334750398993492, 0.3319959342479706, -0.8770186305046082, -1.086637258529663, -0.3812192976474762, 2.4784913063049316, 2.6419708728790283, 2.3011693954467773, -0.818535566329956, 1.018786907196045, 2.866338014602661, 3.3881020545959473, 0.5199096202850342, -0.7386672496795654, 0.5753989219665527, -1.4999549388885498, 2.317192554473877, 0.39009299874305725, -0.7637471556663513, 1.6531918048858643, 1.359356164932251, 1.9182780981063843, -0.5676042437553406, -1.5219000577926636, 0.5622695684432983, 0.23709499835968018, -0.46420401334762573, -0.007317756302654743, -1.4510451555252075, -1.1519548892974854, -0.07572615146636963, 0.27424749732017517, -0.8082875609397888, -0.5532200336456299, 0.3797430098056793, 2.0546069145202637, -2.946716070175171, -0.037928853183984756, 5.0170063972473145, 2.7028210163116455, -1.9684284925460815, -1.6385689973831177, -0.2991710305213928, -0.38658732175827026, 1.7578083276748657, 0.83024662733078, 1.3534088134765625, 1.576369285583496, 0.9427739977836609, 2.2023816108703613, 0.027119895443320274, -1.5358315706253052, 1.6457463502883911, 0.3436518907546997, 0.6747318506240845, 0.036261241883039474, -3.0347557067871094, -0.21417951583862305, 0.6594803333282471, 0.5025573968887329, -4.615103721618652, -4.6221394538879395, 2.174304962158203, -1.105591058731079, -4.037365913391113, -1.6487644910812378, 4.748314380645752, 4.297368049621582, 3.1815929412841797, 0.30507561564445496, 0.17437481880187988, 0.09610534459352493, 1.36531400680542, 1.2113951444625854, 0.6897762417793274, 0.7389429211616516, 1.1100975275039673, 2.3315651416778564, -0.25168970227241516, -0.6219930648803711, -0.9513677954673767, -0.31303438544273376, 1.9707088470458984, 0.12440614402294159, 1.6121697425842285, 1.2861789464950562, -1.313991904258728, 0.918602705001831, -1.8706607818603516, -1.903510570526123, 0.31809332966804504, -8.590052604675293, -4.2901611328125, -0.14534926414489746, 1.2054334878921509, -0.8537409901618958, 5.79649019241333, 2.3612732887268066, -1.0040030479431152, -0.49528396129608154, 0.2505842447280884, 1.0859805345535278, -0.6516417264938354, 1.6644573211669922, 1.6656252145767212, -1.382891297340393, -0.8791033625602722, -0.8876206874847412, 0.4614194631576538, 0.19338615238666534, 1.8101463317871094, -0.08144848048686981, -0.41667360067367554, 0.6559135913848877, 0.6597241759300232, 0.9910869002342224, 0.5443246960639954, -2.371591567993164, -4.757944107055664, -0.8849599957466125, -2.3293676376342773, 1.5363056659698486, 0.0025338917039334774, -2.8208065032958984, 0.6869563460350037, -1.333357572555542, -1.6017597913742065, -0.3828500807285309, -0.23406165838241577, 0.9294799566268921, -0.6534870862960815, 0.3147916793823242, 0.2151716649532318, 1.7022839784622192, 0.997608482837677, -1.3498163223266602, 1.1160788536071777, 0.9440990686416626, 2.153838634490967, -0.25606533885002136, -1.1256086826324463, 1.7277696132659912, 0.9923018217086792, -1.4383034706115723, -0.19190560281276703, -1.3392198085784912, -7.502021312713623, -4.3278937339782715, 1.8406579494476318, -0.06904346495866776, -1.080784797668457, 1.4890938997268677, -0.645205020904541, -1.5923995971679688, -0.23006311058998108, -0.24704447388648987, 0.6916986703872681, 0.19687654078006744, 0.5916531682014465, 0.48895907402038574, 0.7330929040908813, 0.21469542384147644, 1.9343037605285645, 0.756764829158783, 0.7978067994117737, 1.1222113370895386, 0.1035180389881134, 0.9874191880226135, -1.1143345832824707, 0.09268704801797867, 0.05863232538104057, 0.14804640412330627, 0.5450523495674133, 1.6073473691940308, -2.6117911338806152, 0.7216072082519531, 0.9865778684616089, 1.3596141338348389, -0.8800911903381348, 5.933703899383545, -1.739576816558838, -4.224903583526611, 1.070029616355896, 0.6905858516693115, -0.15497158467769623, -0.5160767436027527, -2.0012123584747314, -0.48785287141799927, -0.10575252771377563, -0.49092477560043335, 0.710719645023346, 0.07495545595884323, -1.8069043159484863, -0.1567709743976593, -0.5483789443969727, -1.5953317880630493, -2.391859769821167, -0.8578067421913147, 1.6510716676712036, -1.894357681274414, -1.7229827642440796, -2.951543092727661, -4.884190559387207, 1.6476274728775024, -1.8040428161621094, 0.24633921682834625, 5.363757610321045, 3.2832913398742676, -0.796904981136322, -2.4058218002319336, -1.4079747200012207, -0.9636910557746887, -1.3319586515426636, -0.0231230016797781, -1.0374727249145508, -1.9843535423278809, -1.2814594507217407, -1.0389996767044067, -1.7788761854171753, -0.4569011926651001, -0.9758198857307434, -1.229645848274231, -0.39612942934036255, -2.1888179779052734, -0.5463396906852722, -1.9232208728790283, -1.4997782707214355, -3.925705909729004, -0.2120508998632431, -1.3461689949035645, -1.741609811782837, -6.051246643066406, -2.1286587715148926, -0.0071222661063075066, 0.9949535727500916, 0.3273676633834839, -6.221305847167969, -3.864971160888672, -2.1228694915771484, -1.8534111976623535, -1.010948896408081, 0.16555681824684143, -0.5621092915534973, -0.7418857216835022, -1.5757877826690674, 0.055494412779808044, -0.34068167209625244, 0.5658326148986816, -0.29909417033195496, -0.5794174671173096, 1.22016179561615, -0.38655155897140503, -1.0284881591796875, -3.685026168823242, 0.18096794188022614, -1.2118175029754639, -0.513020396232605, 0.20413388311862946, 1.6248769760131836, -5.779901504516602, -0.21030139923095703, -1.4527621269226074, -2.74467134475708, -5.957564830780029, -6.1866230964660645, -0.8540735840797424, -2.497157096862793, -2.6947953701019287, -1.3786007165908813, -0.9950891733169556, 0.5776894092559814, -2.1359260082244873, 0.18984884023666382, -0.2845485508441925, -1.4260005950927734, -0.9803938865661621, -1.0799356698989868, -1.6910388469696045, -0.4651471972465515, -0.7041815519332886, -0.4264112114906311, 0.699070930480957, 2.620556592941284, 1.0316243171691895, -1.4815824031829834, -1.6390360593795776, -0.7995494604110718, -7.157220363616943, -0.1734647899866104, -1.466525912284851, -1.1266839504241943, -5.274875164031982, -6.284836292266846, 0.7901173830032349, -1.7891008853912354, -0.21568873524665833, 0.8243651390075684, -0.7074642777442932, -0.08993669599294662, -0.2387932538986206, -0.30943581461906433, -0.8912323713302612, -0.43382465839385986, 0.13971468806266785, -1.3795207738876343, -0.44285574555397034, 0.14513449370861053, -1.6252881288528442, 0.5618106722831726, -0.1139824390411377, -0.8980740904808044, -2.187154531478882, -1.109840750694275, -2.044811248779297, -1.5661174058914185, -4.875865936279297, -0.15891849994659424, -0.026240309700369835, -0.027320580556988716, -5.845047950744629, -7.374701976776123, -0.17953452467918396, 0.2715319097042084, 0.9273456335067749, 1.1706379652023315, -0.6395732760429382, 0.7456658482551575, 2.097778081893921, -0.19123870134353638, -0.2303399294614792, -0.33102160692214966, 0.19223980605602264, 0.09814057499170303, 1.4534322023391724, 0.34987539052963257, -1.5707906484603882, -0.13108736276626587, -3.112004280090332, -0.40510082244873047, -2.0034782886505127, -5.113303184509277, -4.014096260070801, -1.2937954664230347, 0.1639559268951416, 0.07435663044452667, -0.03676832094788551, -0.002445302437990904, 2.039316177368164, -1.9600239992141724, 2.3558578491210938, 6.000378608703613, 2.4392271041870117, 1.0280319452285767, 0.4083831012248993, -0.6420895457267761, 1.8079088926315308, 2.411323308944702, 0.9529600739479065, 1.5899142026901245, -1.32034170627594, -1.5761598348617554, 0.6850104928016663, -2.100766897201538, -2.4640069007873535, -0.9870957732200623, -0.28639504313468933, -1.3415528535842896, -3.4925923347473145, -3.8867294788360596, -7.480495452880859, -1.0816031694412231, -2.1530632972717285, 0.01872621849179268, 0.06549689918756485, 0.019006280228495598, 1.1968110799789429, 4.4294233322143555, -0.2670882046222687, 0.08229752629995346, -0.44806671142578125, -0.6331136226654053, -1.6085374355316162, -0.09057199954986572, 1.9622348546981812, 1.4784739017486572, -3.174633741378784, -0.21541167795658112, 1.711411476135254, 0.6559271216392517, 0.5752056241035461, -0.6975809335708618, 0.11378882080316544, -6.179077625274658, -4.138036251068115, -0.7895482778549194, -1.2103148698806763, -2.066909074783325, -5.276520729064941, 1.8032925128936768, -0.337192177772522, 0.03878253698348999, -0.0700082927942276, -0.07002925872802734, -0.053183551877737045, 3.5766992568969727, -3.813967227935791, -2.27860951423645, -1.3232980966567993, -0.21417661011219025, 3.7435383796691895, 4.048973560333252, -0.7877901792526245, -0.39331576228141785, -0.49484357237815857, -0.3627065420150757, -1.7347240447998047, -1.594759464263916, -1.757525086402893, -3.7801413536071777, -3.35939621925354, -3.947075843811035, -4.04665470123291, 1.6344531774520874, 0.49918243288993835, -2.48331356048584, 1.034133791923523, 2.5369303226470947, 0.07097763568162918, 0.06467894464731216, 0.057189129292964935, -0.03432103618979454, 0.06349071860313416, 0.03797413036227226, 2.1083717346191406, 3.920908212661743, -0.18351304531097412, -1.4760440587997437, -2.523070812225342, 2.1717615127563477, 2.414135694503784, 0.14047501981258392, 0.5244365334510803, 4.47770357131958, 0.5656570792198181, -1.5237181186676025, 1.4522757530212402, 3.990288496017456, 1.445069670677185, 0.9505817294120789, 2.6881253719329834, 5.066638469696045, 2.2271170616149902, 3.869401454925537, -0.04792661592364311, 0.012395491823554039, -0.07722997665405273, 0.08499341458082199}, {-0.004309322685003281, 0.06065301224589348, -0.043802693486213684, 0.04809989035129547, 0.057742420583963394, 0.067392498254776, -0.01637399196624756, 0.0567636638879776, -0.06814064830541611, -0.037252336740493774, -0.031749021261930466, 0.0020659344736486673, 0.5601838231086731, 1.5233567953109741, 1.1947721242904663, 0.1321592479944229, 0.007382038049399853, 0.04783691465854645, 0.05892599746584892, -0.06677760928869247, 0.02736276015639305, -0.056083183735609055, -0.02330026775598526, 0.006933491677045822, 0.015362294390797615, 0.0388316884636879, -0.06368155777454376, -0.08339059352874756, -0.027806827798485756, 0.01331519428640604, 0.012148520909249783, 0.005855942144989967, 0.17000405490398407, 0.26144593954086304, 0.334768682718277, 2.0812313556671143, 2.7481558322906494, 3.7580673694610596, 4.298202991485596, 5.159734725952148, 5.370003700256348, 2.177938938140869, 0.4069346487522125, 1.011236310005188, 3.8939666748046875, 3.5893945693969727, 4.6367387771606445, 0.5949163436889648, 0.6461988091468811, 1.7809525728225708, 2.923739194869995, 2.6287381649017334, 0.08664476871490479, 0.07062865048646927, 0.029312947764992714, 0.012271099723875523, 0.0032237116247415543, -0.05937163904309273, -0.07293904572725296, 0.10853112488985062, 1.0327891111373901, 3.374380588531494, 5.055678367614746, 5.63978385925293, 6.394845485687256, 7.761051177978516, 5.514476776123047, 2.906808376312256, 3.0547611713409424, -3.4196085929870605, 0.8083411455154419, -0.30010226368904114, 0.4673338532447815, -0.8738008737564087, -1.3108924627304077, -6.3350653648376465, -3.4099855422973633, 0.5489223599433899, 2.9237465858459473, 4.319154262542725, 5.136286735534668, 2.376939296722412, -0.005918185692280531, 0.05018968880176544, 0.07388756424188614, -0.049978792667388916, 1.3041423559188843, 1.275804877281189, 0.3534751534461975, -3.5141777992248535, -3.612231492996216, -4.164802551269531, -2.8746073246002197, 2.4777090549468994, 0.27315452694892883, 0.5742369294166565, 1.2068685293197632, 0.32272884249687195, -0.7323470115661621, -2.7655868530273438, 0.5489197373390198, -1.1366015672683716, -0.059279318898916245, 0.17558102309703827, -4.443201065063477, -4.3254075050354, 1.4246524572372437, -0.2795907258987427, -4.512967586517334, -4.47959041595459, -1.9275692701339722, -0.01897645927965641, 0.08480596542358398, 0.12218483537435532, 0.5075961947441101, 3.08292555809021, 0.4677382707595825, -1.5510331392288208, -0.47884848713874817, -1.8105238676071167, -1.436734914779663, -0.7436773180961609, 2.330101251602173, 0.2703743875026703, 1.2826688289642334, -0.28116995096206665, 0.9867234826087952, 0.20511601865291595, 0.5825887322425842, 1.7691291570663452, 0.7508108019828796, 1.0912914276123047, -1.13579523563385, -1.8707940578460693, -1.8450266122817993, -6.555225849151611, -6.046570777893066, -2.9520349502563477, 0.4081772565841675, 0.2945559024810791, 0.07821644842624664, -0.07596676051616669, 1.5191205739974976, 2.18564510345459, 0.12610621750354767, -1.5786429643630981, 0.6167200207710266, 2.76996111869812, -0.367770254611969, 0.4449039101600647, 0.005349250975996256, 0.8706350326538086, -0.2030993402004242, 0.5361138582229614, 0.2887216806411743, 0.17264890670776367, 0.34778961539268494, -1.1822961568832397, -0.36265063285827637, 0.48928412795066833, 0.023144520819187164, 2.725341320037842, 1.2453030347824097, -0.32873621582984924, -2.1369199752807617, -1.4525481462478638, 1.3820406198501587, -1.5773271322250366, 0.05906759947538376, -0.12226469069719315, -0.17393964529037476, -1.1359409093856812, -1.7450916767120361, -3.435931921005249, -1.9710277318954468, 0.8481767177581787, -3.452877998352051, -0.7166146039962769, -0.5655659437179565, -0.9327803254127502, 0.18915851414203644, 0.1811486929655075, 0.9127392768859863, 0.5539194941520691, -0.3205501139163971, 0.30298709869384766, -0.827090859413147, 0.19188185036182404, 0.618043065071106, -0.47353601455688477, -2.8312013149261475, 1.3512952327728271, -3.5914251804351807, 1.1684248447418213, -0.12154362350702286, 3.280689001083374, -0.05422751232981682, -0.5981240272521973, -0.4439917802810669, -3.7466094493865967, -1.1170899868011475, 1.9048762321472168, -0.5172218680381775, -1.1079120635986328, -0.5820069313049316, -0.19514921307563782, 0.01598520763218403, -0.11069179326295853, -0.16289018094539642, -0.11185453832149506, -0.38095027208328247, 0.5410435795783997, 0.2658829092979431, 0.4704420864582062, 0.8749566078186035, 0.49401164054870605, 1.134476661682129, 2.0299124717712402, 0.8611977100372314, -0.8056204319000244, -2.1926324367523193, -2.388288974761963, -1.38810396194458, 3.8990604877471924, 0.019099291414022446, 2.522737503051758, -1.580153465270996, -3.7417521476745605, 0.40278422832489014, 0.13514724373817444, 1.15768563747406, -1.259265422821045, -0.9674060344696045, 0.9331564903259277, 2.552645206451416, 2.134864568710327, -0.6059449315071106, 0.2739119231700897, -0.9807876944541931, -0.7574056386947632, -0.03721991181373596, 2.347787380218506, -0.2543824017047882, -0.6867544651031494, -0.33563634753227234, -1.82078218460083, -0.4970153570175171, 1.33699369430542, -0.9529047012329102, -2.7722370624542236, 1.5881311893463135, 6.821918487548828, 0.06918104737997055, -2.4060628414154053, -0.3841179311275482, 0.09587697684764862, 0.2954244911670685, 2.0984864234924316, -0.7858041524887085, -1.6815160512924194, -0.1614416390657425, 0.7859400510787964, 0.7239375114440918, 0.7599837779998779, 0.6140336990356445, 0.2517584562301636, -0.17245249450206757, 0.23516345024108887, 0.5368849635124207, 0.4323711097240448, -0.40544629096984863, -1.132536768913269, -1.1717510223388672, 0.4797164499759674, 1.5770065784454346, 2.065945625305176, 0.8556391596794128, 2.356384038925171, 4.54658842086792, -1.5726075172424316, 0.040657807141542435, -2.391953468322754, -0.4859527051448822, -0.9012103080749512, -1.3838646411895752, -4.036181926727295, 0.37194594740867615, 0.16369952261447906, 1.5711402893066406, 0.31073424220085144, 1.7992172241210938, 0.44410645961761475, -1.2350683212280273, -0.6115775108337402, 0.5547268390655518, 0.8429471850395203, 0.052937887609004974, -0.978601336479187, -0.13282902538776398, -0.6014474630355835, -1.0349870920181274, 0.07070308923721313, -1.7422479391098022, 0.9132899641990662, 3.721468210220337, -3.8411736488342285, 1.160264253616333, 2.30884051322937, 0.06021137163043022, 4.166457653045654, -4.873991012573242, -2.3407068252563477, 0.37482312321662903, 2.7701804637908936, 2.9823966026306152, 4.4032063484191895, -0.17730899155139923, 0.5383307337760925, -1.664335012435913, 1.571601390838623, -0.4241352081298828, -1.3068283796310425, 0.2479601502418518, -2.044776678085327, -2.182234048843384, -2.396240711212158, -0.305260568857193, -0.0028539279010146856, 0.48894599080085754, 1.105804204940796, 1.8298202753067017, 0.40482744574546814, 2.545457124710083, -0.5815789103507996, 1.8271682262420654, -0.7484641075134277, 0.08160565048456192, -0.5351454615592957, 0.7851690053939819, -1.5504485368728638, 3.282785654067993, 4.164320945739746, 1.688770055770874, 1.8799086809158325, 0.078874371945858, 2.009005308151245, -2.1962525844573975, -2.3601648807525635, -3.362760066986084, -2.335615873336792, -0.24540652334690094, -2.204651355743408, -1.3592787981033325, -1.2664449214935303, -1.6451821327209473, -0.45071813464164734, 0.32335880398750305, 3.2897915840148926, -0.44485998153686523, 1.1966887712478638, 5.295384883880615, -0.7241313457489014, -6.587255954742432, -1.187090516090393, 0.9187143445014954, -1.6976804733276367, 2.0120058059692383, -0.7978188395500183, -2.325747013092041, 3.566973924636841, -0.8934168815612793, -2.5763449668884277, 0.4187489449977875, 1.7171655893325806, -1.668026089668274, -2.98893141746521, -1.7260980606079102, 0.4344475567340851, -0.7361659407615662, 0.7401885390281677, 0.2680196166038513, -1.397715449333191, -0.8399562835693359, -1.170229196548462, 1.123426079750061, -1.422140121459961, 0.6433292627334595, 2.5149965286254883, 1.7580105066299438, -4.037856101989746, -1.902644157409668, 7.770122051239014, 0.17008693516254425, -2.316908359527588, 0.36690470576286316, 1.7553530931472778, -10.72988510131836, -1.6950031518936157, -0.3433811664581299, -3.855559825897217, -4.166392803192139, -3.9182591438293457, -3.142178773880005, -0.7429752945899963, -0.48795953392982483, 1.7327313423156738, -1.0783545970916748, -2.005894660949707, -1.3045185804367065, -1.698610782623291, -2.9837329387664795, -0.860400915145874, -2.187188148498535, -1.24826180934906, 0.12804396450519562, 0.9233089089393616, 0.5515768527984619, -0.27651095390319824, 10.723417282104492, 5.485651969909668, 0.15870295464992523, -2.0001378059387207, 3.412047863006592, 1.8194741010665894, -12.546928405761719, -5.0161662101745605, -2.5932846069335938, -3.9053456783294678, -4.097224235534668, -1.5113004446029663, -1.2980015277862549, 2.310628652572632, 1.777862548828125, 1.8837095499038696, -0.3122726380825043, -1.9951341152191162, -0.5291619300842285, -1.4429243803024292, -0.12979714572429657, -0.7620126605033875, -0.48018884658813477, -2.320434331893921, -1.6660321950912476, 1.8093595504760742, 3.1583471298217773, 4.90118932723999, 4.523868560791016, 5.188841819763184, -0.024714406579732895, -1.6923269033432007, 3.726166248321533, 3.1952719688415527, -9.37997817993164, -3.7766835689544678, -3.290731906890869, -0.9153648614883423, -0.6058498620986938, 1.6359312534332275, 2.7543132305145264, 2.361248016357422, 4.389589309692383, 1.3959105014801025, -1.5192750692367554, -0.5705872774124146, 1.0119112730026245, -0.03833674266934395, -0.844030499458313, -1.700388789176941, -3.3075757026672363, -0.9136451482772827, -3.0428085327148438, 1.2577959299087524, -1.7162140607833862, 3.1705193519592285, 2.8943445682525635, 3.4303746223449707, 0.04355795681476593, -1.3575235605239868, 2.2486815452575684, 6.286736488342285, -1.5998286008834839, -0.1220419630408287, -1.3581489324569702, 0.600928008556366, 0.749928891658783, 1.3730862140655518, 2.040144443511963, 1.0388327836990356, 2.6848702430725098, 1.1101754903793335, 0.4434482455253601, -1.764993667602539, 0.24668167531490326, -3.0746471881866455, -1.2230232954025269, -2.9089627265930176, -3.3907310962677, 0.5861741304397583, 0.046357400715351105, -1.2367918491363525, -4.843838214874268, 2.2629263401031494, 2.824300527572632, 5.158387184143066, 0.005303296726197004, 0.24779953062534332, -0.350520521402359, 2.89275860786438, -0.5667669773101807, 0.049409396946430206, 0.571336567401886, 1.078168272972107, -0.6366888880729675, 1.3891549110412598, 1.2811869382858276, 0.3771507441997528, 2.188112258911133, 0.2039870023727417, -1.0668972730636597, -0.025751734152436256, -0.6361396312713623, -1.7155431509017944, -1.5751603841781616, -2.8110008239746094, -2.2801005840301514, 0.47009506821632385, 1.2866721153259277, 0.06897779554128647, -0.4547841548919678, 1.3945295810699463, 2.5829012393951416, 3.0530714988708496, 0.5643981695175171, -1.1605390310287476, -1.180490255355835, -2.134711503982544, 0.0240914449095726, -0.9737030863761902, -0.16032736003398895, 1.0678430795669556, -0.00978850107640028, 2.1886980533599854, 3.5115087032318115, 2.8409643173217773, 1.4948956966400146, 1.2841873168945312, -1.1335020065307617, -1.5197440385818481, -0.37387895584106445, -0.00455261766910553, -0.44069749116897583, -0.1542425900697708, -0.06082778424024582, -1.8351999521255493, -0.3797057867050171, 2.970165729522705, 0.21084454655647278, 3.3048033714294434, 5.714969635009766, 2.19136905670166, 0.07775377482175827, -1.4367018938064575, -1.666908621788025, 2.145517110824585, 0.3692585527896881, 0.8762986660003662, 0.42066091299057007, 0.5800563097000122, 1.0348827838897705, 0.83388352394104, 3.7480671405792236, 3.3564512729644775, 2.7672407627105713, 0.6651145219802856, -0.2382197082042694, -0.2487426996231079, 0.6551453471183777, 0.7921250462532043, 0.46755754947662354, 0.036166105419397354, 1.0297266244888306, -0.8340514302253723, -0.08655674010515213, 2.226951837539673, 1.2373658418655396, 4.17756986618042, 3.4092462062835693, 0.30897942185401917, 1.5493698120117188, 2.4203782081604004, -2.2095961570739746, 0.7405335307121277, -1.1719863414764404, 0.819185197353363, 0.8850880861282349, -0.02007642388343811, -0.3651696741580963, 1.4502203464508057, 1.2764707803726196, 0.5081611275672913, 1.6228179931640625, 1.7583690881729126, 0.704683244228363, -0.5748578906059265, -1.7526851892471313, 2.68666934967041, 1.2758393287658691, 2.401125192642212, -1.2383575439453125, 0.5071693658828735, 0.2264396995306015, 4.813266277313232, 2.9006874561309814, 3.5402352809906006, 4.204833507537842, -0.4017621576786041, 1.5528532266616821, 1.1401960849761963, 3.2776670455932617, 0.16857057809829712, 0.16177120804786682, 5.798440933227539, -0.6697719097137451, 0.6297287940979004, 0.9177846312522888, 1.3636425733566284, -0.17922687530517578, -0.5526593923568726, 0.21882511675357819, 0.9823132157325745, 2.0704269409179688, -0.1612081080675125, -1.6016592979431152, -1.0872422456741333, 1.2723734378814697, 1.1242204904556274, 0.9225071668624878, 1.9305381774902344, -0.41819843649864197, 3.213899850845337, -0.057538799941539764, -2.211918830871582, -1.9808132648468018, -0.48481473326683044, 0.00281977909617126, -0.008032738231122494, 3.8479204177856445, -2.7525670528411865, -2.6195287704467773, -0.37201154232025146, -1.5119903087615967, -0.6132743954658508, -0.6530243754386902, 1.4526809453964233, 0.9819366335868835, 0.6705319881439209, 1.1482471227645874, 1.2197436094284058, -0.8253806829452515, -0.623991847038269, 1.3077764511108398, -2.2313790321350098, 0.4221462905406952, 1.508609652519226, 0.38404834270477295, 0.31084245443344116, 2.9009175300598145, 3.776630163192749, -0.08125381171703339, -3.4613869190216064, -1.3149374723434448, 0.03209457919001579, 0.08671354502439499, -0.08256787061691284, -0.018721623346209526, -2.4707794189453125, -3.49139142036438, -2.262819290161133, -0.7059096693992615, -2.9345107078552246, -2.241847038269043, -0.6411021947860718, 0.8238138556480408, 0.5450663566589355, 2.330962657928467, 1.1579904556274414, 2.724858283996582, 1.8979471921920776, 0.6531417965888977, -2.947571277618408, 0.5291495323181152, 3.230771064758301, -1.6931191682815552, -1.085080623626709, 3.6743528842926025, -0.48985543847084045, 3.976212978363037, 3.7354979515075684, 2.4258644580841064, 0.0873442217707634, -0.001649930840358138, -0.053972356021404266, -3.3559153079986572, 1.4837490320205688, -0.3221425414085388, -3.558455467224121, 0.18516755104064941, -1.262937068939209, -3.296417236328125, -1.6055108308792114, 1.1370609998703003, -1.727935791015625, 0.9788435101509094, 2.4090349674224854, 2.351567506790161, 3.7551872730255127, 1.9122638702392578, 3.072094440460205, -1.8158186674118042, -4.957009315490723, -1.7050597667694092, 0.6629824042320251, -5.663224697113037, -6.291202545166016, -4.432208061218262, 2.2861733436584473, 4.358633041381836, 0.024984654039144516, -0.06495273113250732, -0.008272935636341572, -0.06890036910772324, -1.5025254487991333, 1.3963173627853394, 1.3929411172866821, -2.09451961517334, -1.4182145595550537, 1.8132686614990234, 0.46285825967788696, 0.1430300772190094, 1.1409611701965332, -0.3096039891242981, 1.1223770380020142, 0.4338195025920868, -5.468440532684326, -7.904421806335449, -8.264678001403809, -9.97892951965332, -6.325262546539307, -4.942931652069092, -5.119690895080566, -3.402780055999756, 2.881014347076416, 0.05547759309411049, -1.2282992601394653, 0.027511492371559143, 0.05686536058783531, -0.04004602134227753, 0.020740218460559845, -0.042105644941329956, -0.08439511805772781, -0.939578652381897, -2.7353999614715576, -1.647083044052124, -2.4308173656463623, -1.565401554107666, 2.690218687057495, 1.8790087699890137, -1.8541386127471924, -2.0444374084472656, -3.019850015640259, -1.890679955482483, -1.9791065454483032, -0.18331338465213776, -0.7722771763801575, -0.773058295249939, -0.04573965072631836, -0.7501351833343506, -0.6699348092079163, 0.05572251230478287, 0.06540458649396896, 0.009561415761709213, -0.01364584919065237, -0.03985827788710594, 0.08205977827310562}, {-0.07062952220439911, -0.06497880071401596, -0.027299020439386368, -0.0032257556449621916, -0.031114254146814346, -0.006331592332571745, -0.07877414673566818, -0.05949714034795761, 0.018202492967247963, 0.010461636818945408, -0.025195270776748657, 0.07587990164756775, 0.012705202214419842, -0.03439967706799507, -0.0036336667835712433, -0.06705654412508011, 0.08478139340877533, 0.037980981171131134, -0.018726849928498268, -0.02634090930223465, -0.014554502442479134, 0.0027373929042369127, -0.06522689759731293, -0.03914424031972885, 0.0802374854683876, 0.012309195473790169, -0.040098320692777634, -0.04032934084534645, -0.06202300265431404, -0.07337082922458649, 0.0013126007979735732, -0.009283283725380898, 0.5594339966773987, 0.8061273694038391, 0.04396609216928482, 0.5503669381141663, 0.07136978954076767, -0.1387757509946823, 0.18351300060749054, 0.30157846212387085, 5.613437652587891, 5.581489086151123, 7.6779913902282715, 7.283738613128662, 3.8029837608337402, 0.013596456497907639, 2.152836561203003, 5.619772434234619, 4.906540393829346, 1.1428468227386475, 0.7108239531517029, 0.37131017446517944, -0.06886667013168335, 0.021119175478816032, -0.08564767241477966, 0.01730930060148239, -0.028958164155483246, -0.05156128481030464, 1.020911455154419, 2.1049721240997314, 1.4476875066757202, 0.6125954389572144, 0.8322153091430664, 0.5472901463508606, -2.7550909519195557, -4.107044696807861, -3.614715576171875, -0.08391179144382477, -4.105336666107178, -2.601355791091919, 0.3790096044540405, 3.416865110397339, 2.695425271987915, 1.4546884298324585, 2.33577036857605, 3.5989513397216797, 0.7702232003211975, 1.7805107831954956, 3.342420816421509, 2.203749895095825, 1.4696663618087769, -0.13464322686195374, -0.0832851454615593, -0.06541707366704941, 0.061066363006830215, 0.046808671206235886, 0.17517271637916565, 1.3097965717315674, 2.728971004486084, -0.2666882574558258, -1.5913642644882202, 0.5601113438606262, 0.33685627579689026, -1.4822443723678589, -3.1152503490448, -4.891754150390625, -2.2155227661132812, 0.5410103797912598, -0.3920578360557556, 0.058741841465234756, 0.3976515829563141, 1.6976327896118164, 1.8646128177642822, 2.0679473876953125, -0.694414496421814, 4.402705192565918, 0.09167559444904327, -0.7755482196807861, 1.43348228931427, -1.8678709268569946, 0.09538347274065018, -0.010954738594591618, 0.056113291531801224, 0.08577581495046616, -0.4438098669052124, -1.2012635469436646, 0.5666175484657288, 1.1097460985183716, -1.3675262928009033, -0.8730959892272949, -5.797909259796143, -0.4700809121131897, 1.452979564666748, 0.29379984736442566, -0.0733865424990654, 0.5654677748680115, -1.9980601072311401, 0.14360402524471283, 0.21021407842636108, -1.1792583465576172, 2.149078130722046, 0.9526278972625732, -0.8475481867790222, 0.9865995049476624, -1.8831321001052856, -0.7188855409622192, -0.9485061764717102, 2.722454071044922, 1.3895355463027954, 0.6685938835144043, 0.05518366023898125, 0.07423454523086548, 1.1686285734176636, -2.514796018600464, 1.281424641609192, 0.20385167002677917, -2.8286936283111572, -1.0282748937606812, -2.228999137878418, -0.9084020256996155, 0.044578082859516144, -1.1331987380981445, -0.9270513653755188, -0.3520672619342804, 0.4755890369415283, 0.3701080083847046, 0.03424737602472305, -0.30343112349510193, 0.49099674820899963, 0.5611757040023804, 0.01059553399682045, -0.6187270879745483, -0.4411476254463196, 0.8681140542030334, -1.298518180847168, -1.6384367942810059, 1.8262354135513306, 1.1853314638137817, -0.03412972763180733, -0.2814193665981293, 1.5267361402511597, -0.040485214442014694, 0.46744272112846375, 1.0254095792770386, -3.4278860092163086, -1.4665470123291016, -0.5286473631858826, -3.2178187370300293, -0.1428757756948471, 0.3625233471393585, 0.008908269926905632, 0.7234637141227722, -0.023843223229050636, -0.5828896164894104, -1.561246633529663, -1.0435140132904053, -1.130915641784668, -0.49662190675735474, 0.15947122871875763, -0.031862225383520126, 2.2571475505828857, 1.607533574104309, 1.5383189916610718, 4.215575218200684, 3.6707961559295654, 0.3257635533809662, -0.1681230366230011, -0.18750783801078796, 1.0282975435256958, 0.3166155219078064, -3.893670082092285, -0.6654874682426453, -3.6630098819732666, -0.30541160702705383, -0.4261415898799896, 0.7189586162567139, 1.1318680047988892, 0.1946423351764679, 0.007205592934042215, -0.16040126979351044, 0.9307319521903992, -0.5873561501502991, 0.0020890487357974052, 2.004969835281372, 1.0950442552566528, -0.5217564702033997, 3.8215012550354004, 0.010300706140697002, 3.076484441757202, 1.1047849655151367, 0.15779776871204376, -0.43807995319366455, 7.35552453994751, 1.727644443511963, -0.04802607744932175, -0.18969066441059113, -4.358495712280273, -2.706435203552246, -1.661311149597168, -0.6439581513404846, -1.7057774066925049, -1.4400147199630737, -0.3676561117172241, -0.665754497051239, -2.387880563735962, -0.7144417762756348, 0.9921922087669373, 1.4730218648910522, -0.01832018606364727, -0.01764565147459507, 0.7702507972717285, 0.4624823331832886, 1.753268837928772, 2.7467689514160156, 3.2353851795196533, 1.3516288995742798, 3.370136022567749, 4.10100793838501, 5.163369655609131, 1.1474801301956177, 5.4431843757629395, 3.537322759628296, 0.2217903733253479, -0.09423640370368958, -5.580580234527588, -7.321019172668457, 0.48406970500946045, -1.4397046566009521, -0.28380945324897766, 0.15872615575790405, -1.8369154930114746, 0.7270596027374268, 0.35171183943748474, -0.22533030807971954, -1.074365258216858, -0.7366568446159363, -0.18269816040992737, -0.6314476728439331, -1.5227198600769043, -1.7535415887832642, 1.1103520393371582, -0.9631580710411072, 0.5413838028907776, -0.5768895149230957, 2.887244701385498, 2.710662603378296, 3.4098732471466064, 2.6202919483184814, 2.5369677543640137, 5.197022914886475, 0.21415534615516663, -0.041527096182107925, -0.47791749238967896, -4.88282585144043, 0.30266323685646057, -3.1860642433166504, -0.0201334897428751, 1.724155306816101, -1.1942147016525269, 0.36844927072525024, 0.14240744709968567, -0.7594428658485413, -1.129960298538208, 0.7228454351425171, -1.1264492273330688, -2.374122142791748, -4.327485084533691, -8.92302131652832, -7.3403544425964355, -4.277541637420654, -1.651944637298584, -0.6427775621414185, -2.588533639907837, -6.632306098937988, -5.609533309936523, -1.2607067823410034, 7.382725715637207, 4.900221824645996, 0.2098814994096756, -0.09295140206813812, -0.10399840027093887, -2.579118013381958, 1.5034029483795166, -0.6781160235404968, -1.7665029764175415, -0.48534315824508667, -2.5289504528045654, -2.626323938369751, -1.2816945314407349, -1.381178855895996, -1.5557055473327637, 0.07407819479703903, -2.096771478652954, -2.3754234313964844, -1.2289910316467285, -5.781732082366943, -9.564273834228516, -10.959750175476074, -11.945477485656738, -10.716017723083496, -10.056585311889648, -7.973850250244141, -10.45498275756836, -4.1562323570251465, 5.736428260803223, 3.773226261138916, 0.07062780857086182, 0.9335911870002747, -0.01437098253518343, -0.11976355314254761, -0.5296463966369629, 0.057705625891685486, 0.12424127757549286, -0.9103705286979675, 1.6009143590927124, 0.2429906129837036, 0.9290397763252258, 1.6830418109893799, 0.7368341088294983, -0.3570241332054138, -0.8387478590011597, -1.1235564947128296, 0.01902610994875431, -0.3188314437866211, -2.1059165000915527, -8.468918800354004, -13.681931495666504, -16.402902603149414, -17.129558563232422, -12.506861686706543, -9.771966934204102, -1.536568522453308, 1.749558925628662, 3.702446699142456, 1.7067453861236572, 0.8376798629760742, -0.36504310369491577, 1.828920602798462, -0.634655237197876, -1.0529253482818604, 1.8286933898925781, 1.5362492799758911, -0.5905965566635132, -0.31899335980415344, 1.0026997327804565, 1.182485580444336, 1.6008273363113403, 0.047340430319309235, 1.8070182800292969, 0.5211287140846252, 0.6305343508720398, 0.22123229503631592, 0.09657048434019089, 1.0517176389694214, -1.6644012928009033, -2.989788055419922, -6.496738910675049, -9.281841278076172, -8.481291770935059, -2.0414254665374756, 1.543089747428894, -0.944099485874176, 3.508852005004883, -0.19152505695819855, -0.4830758273601532, -1.3289836645126343, 1.9011247158050537, -1.8012826442718506, 2.4467077255249023, -0.017697306349873543, 0.013932285830378532, -0.5341086387634277, 1.9306256771087646, -0.8476293683052063, -1.714139461517334, -0.6480963230133057, 0.704586386680603, -0.09135319292545319, 0.07878546416759491, -1.4673001766204834, 1.2990282773971558, 0.11162953078746796, 0.7970988750457764, -1.0370970964431763, -0.8897640705108643, -1.3439476490020752, 2.2303617000579834, -1.975767731666565, -3.846033811569214, -0.9575806856155396, 3.0870728492736816, -0.007604220416396856, 0.30951523780822754, -3.719191789627075, -1.2577518224716187, -1.4255855083465576, 0.5884323120117188, 1.057668685913086, -0.15629109740257263, 0.6022951006889343, 0.022456737235188484, -0.09631063044071198, 1.876373529434204, -0.439744770526886, -0.07558143138885498, -0.9019055962562561, 0.3215278685092926, -0.5260899662971497, 1.1100363731384277, -2.2473886013031006, -0.5133113861083984, 0.035706497728824615, -2.2223477363586426, -0.30020201206207275, 0.7383480072021484, -1.6034862995147705, -3.755404233932495, -3.8721213340759277, -0.003678598441183567, 1.4131819009780884, -3.1853487491607666, -2.689100503921509, -2.8756351470947266, -2.5865862369537354, -2.7944703102111816, -1.4531713724136353, 0.1549382358789444, 0.26604580879211426, -0.4953530430793762, 1.9060461521148682, -0.26616570353507996, -0.829863429069519, 0.4366985261440277, -0.7258508205413818, -0.7066552042961121, -0.20473583042621613, -0.35060223937034607, -0.2512797713279724, -0.0528704933822155, 0.3633746802806854, -0.7598116397857666, -2.7190487384796143, -0.07527609169483185, -2.1401524543762207, -4.212889671325684, -4.496796607971191, 0.0659947395324707, 1.7330056428909302, -3.785850763320923, 1.7459580898284912, -0.2930377125740051, -0.31619495153427124, 0.9713495373725891, 0.616389811038971, -0.2277546226978302, -0.16945040225982666, 0.9981521368026733, -1.0492454767227173, 0.4369432330131531, -1.771024465560913, 0.4598114788532257, -0.8317909836769104, -0.21646516025066376, -0.5940672159194946, 0.8619036674499512, 0.7106636166572571, -0.029897799715399742, 0.532785177230835, 1.3617109060287476, 2.7842519283294678, -2.302135467529297, -6.711476802825928, -1.3459968566894531, -3.9714460372924805, 0.000939414429012686, -0.04257223382592201, -3.6597979068756104, 4.29992151260376, 1.2405180931091309, 2.3361170291900635, 1.90366792678833, 1.9423425197601318, -1.785165548324585, 0.5924770832061768, -1.9614765644073486, -2.5732784271240234, 0.04227602109313011, -0.539252758026123, 2.2552502155303955, 1.0572384595870972, 0.7460700273513794, 0.12722031772136688, -0.6857177019119263, -0.517605721950531, 0.25293058156967163, -0.9760419130325317, -1.0246555805206299, 0.7202633023262024, -4.040785312652588, -3.1704702377319336, 1.3919403553009033, -2.1991453170776367, -0.07552166283130646, 0.20906111598014832, 5.319638729095459, 1.2612357139587402, 1.021718144416809, -0.11671461164951324, 1.2106527090072632, -0.8779839277267456, -1.1591079235076904, 0.6374313831329346, -0.015788976103067398, -0.016486531123518944, 0.055309947580099106, 0.8633190989494324, 1.2154152393341064, 1.6475002765655518, 0.43510130047798157, -0.10245078057050705, 1.3352504968643188, -1.500910758972168, 1.2326148748397827, 1.018288493156433, -1.4123504161834717, 3.3115861415863037, 0.16889667510986328, -0.0504988431930542, -2.2898964881896973, -2.4659762382507324, 0.023830298334360123, -1.9339181184768677, 4.635829448699951, -2.325683116912842, -0.6179246306419373, 1.1470825672149658, 0.68562912940979, -1.292057752609253, -0.6875464916229248, 0.4190150201320648, 1.4972683191299438, 0.5951122641563416, -1.4673312902450562, -0.3991870880126953, 0.7652178406715393, 0.5066738128662109, 0.19754736125469208, 1.6758939027786255, 1.249646782875061, -0.5762050151824951, -0.2931213974952698, 0.6022579669952393, -1.0149242877960205, 0.9893972277641296, -1.1371235847473145, -1.6711844205856323, -1.0028176307678223, 0.35993221402168274, -0.06912871450185776, -2.0833706855773926, 0.6102550625801086, -3.295915126800537, 1.8203601837158203, 1.467871904373169, 0.08942729234695435, 1.543926477432251, -0.46515893936157227, 0.4728791117668152, 1.6220184564590454, 1.0517984628677368, 2.046915054321289, 0.8798142075538635, 1.717825174331665, 2.267162799835205, 1.4188411235809326, 0.5349141955375671, 1.3654067516326904, -0.5970574617385864, 1.2287269830703735, -0.3352801203727722, -0.8861417770385742, 1.0458327531814575, 0.41323137283325195, -2.4543373584747314, -1.727095127105713, -0.07897952198982239, -0.05789947509765625, -1.5957318544387817, -3.971143960952759, -1.6578171253204346, 1.5983657836914062, 0.07907088100910187, -1.070450782775879, 0.5768582820892334, 2.285090446472168, 0.8714932799339294, 1.926049828529358, -0.3782152533531189, 1.2143824100494385, 0.4130045473575592, 0.9000229835510254, 1.2478022575378418, -0.02177606150507927, 0.4958268105983734, 0.5154794454574585, 0.8215548992156982, 2.281416654586792, 1.193151831626892, -1.3028494119644165, 4.8299479484558105, 2.362994432449341, 0.19386552274227142, 1.4686646461486816, -0.031906068325042725, 0.026819689199328423, -0.02390940487384796, -0.4637707769870758, -1.6559962034225464, 3.3061492443084717, 1.603786826133728, 3.003852128982544, 0.5667266845703125, 0.3184088468551636, -0.15945099294185638, 1.190360188484192, -0.4826439321041107, -0.7365237474441528, -0.20907309651374817, 1.246182918548584, -0.4132116138935089, -0.9826558232307434, -0.37586259841918945, -0.29268428683280945, -1.601976752281189, 0.880363941192627, -2.8730664253234863, 0.44333845376968384, 2.8424651622772217, 0.8237541317939758, -1.6223382949829102, 0.212782084941864, -0.03182661533355713, -0.075957290828228, -0.04144978150725365, -0.6710889935493469, -0.6593500375747681, 0.4271813631057739, 1.3759233951568604, -1.3800115585327148, -2.3831071853637695, -1.8384169340133667, 1.987133502960205, 1.5833793878555298, 0.9101065993309021, -0.7374047040939331, 0.44811180233955383, 0.5533850789070129, 0.47402650117874146, 1.0584343671798706, 1.3847049474716187, 2.846436023712158, -0.30052557587623596, -0.6638445258140564, 0.20871379971504211, -0.704149067401886, 1.3425955772399902, 2.532912492752075, 2.258307933807373, 3.6942555904388428, -0.07779543101787567, -0.0677868202328682, -0.06949551403522491, -0.35991615056991577, 1.35983145236969, -0.623982310295105, -0.0847105011343956, -0.6845177412033081, 1.5083703994750977, -0.9535003304481506, 2.0458171367645264, -3.025303602218628, -1.1963391304016113, 2.030548334121704, 1.8680373430252075, -1.1678178310394287, -2.9413974285125732, -2.1294736862182617, -0.5209386944770813, 2.3572311401367188, 2.059659719467163, 2.369068145751953, 5.615102291107178, 8.189860343933105, 7.251924514770508, 4.569281101226807, 0.06961128115653992, -0.0779246985912323, -0.07353007048368454, 0.001409576740115881, -0.06290161609649658, -0.013607675209641457, 0.020039644092321396, -0.031498320400714874, 0.03405778855085373, -0.6794524192810059, 0.42576417326927185, -1.6343199014663696, -0.35119378566741943, -1.5578277111053467, -3.3099546432495117, -3.718763828277588, 2.4287874698638916, -2.9561784267425537, 0.3729921281337738, 5.220388889312744, -0.3385145366191864, -1.646071195602417, -0.5801796913146973, -0.7284583449363708, 3.238827705383301, 4.597897529602051, 1.2237573862075806, 0.06721006333827972, 0.015609849244356155, 0.00930098071694374, 0.04776395484805107, 0.05622253194451332, -0.08554746955633163, 0.04495920240879059, 0.0382193922996521, -0.06709688156843185, -0.052117787301540375, -1.1678346395492554, -1.1081504821777344, -1.0814564228057861, -0.7469931840896606, 2.230510950088501, 2.170658588409424, 2.3471646308898926, 2.040381669998169, -0.9282394051551819, -0.22453291714191437, 0.17765812575817108, 1.8212171792984009, 1.3612606525421143, 0.25770094990730286, -0.30910778045654297, -0.39320963621139526, 0.07893913239240646, 0.08549567312002182, -0.015325241722166538, -0.024183526635169983, -0.04143039509654045, 0.08355698734521866}, {-0.07494034618139267, 0.0778442844748497, -0.0783245787024498, -0.005169701296836138, -0.01565428636968136, 0.014342258684337139, 0.05775868892669678, 0.07395980507135391, 0.07245858013629913, -0.021952969953417778, 0.018473772332072258, 0.044449418783187866, -0.025970861315727234, 0.0615827739238739, 0.025740033015608788, -0.0168717410415411, 0.06318496912717819, 0.06776825338602066, -0.07583487033843994, -0.018959585577249527, 0.03992367163300514, -0.0038719873409718275, -0.0834285169839859, 0.07721735537052155, -0.026647193357348442, 0.016829248517751694, -0.017813123762607574, 0.025499340146780014, -0.05961870402097702, 0.05425216257572174, 0.07159149646759033, 0.01578889787197113, 0.018737148493528366, 0.010343425907194614, -0.9701077938079834, -1.0160892009735107, -0.8729457855224609, -0.9273474812507629, -1.2096688747406006, -2.2519853115081787, -1.6222940683364868, -1.1483383178710938, -0.2643084228038788, -1.817901849746704, -1.9755185842514038, -1.8145737648010254, -0.9428620338439941, -1.3717947006225586, -2.0025856494903564, -1.9346202611923218, -4.669905662536621, -4.660450458526611, -0.02422255091369152, 0.016180139034986496, -0.029698243364691734, -0.020878413692116737, 0.05519525706768036, -0.014798329211771488, 0.058706607669591904, -0.17203111946582794, -0.16194987297058105, -0.06958802789449692, -2.282155990600586, -2.5196692943573, -3.517624855041504, -3.3885579109191895, -4.372355937957764, -4.980152606964111, -3.2968928813934326, -2.8847267627716064, -3.1021852493286133, -3.1716580390930176, -3.329861879348755, -5.4846601486206055, -5.1543731689453125, -3.7866051197052, -3.5151712894439697, -4.038344383239746, -5.026580333709717, -4.918609619140625, -0.24386312067508698, -0.00790654681622982, -0.01380108017474413, 0.08101626485586166, 0.043526340276002884, 0.04554497078061104, -0.06116936355829239, -0.13538441061973572, -0.08387666195631027, -3.2615368366241455, -5.147889614105225, -4.054538726806641, -4.4647955894470215, -2.493718147277832, -1.729702353477478, -1.8785663843154907, -2.1715877056121826, -6.048936367034912, -5.493618965148926, -5.699520111083984, -1.1674437522888184, -1.2033703327178955, -1.983238935470581, -0.46768060326576233, -0.634878933429718, -4.38979434967041, -2.18158221244812, 0.1990988701581955, 1.6057038307189941, -0.29820021986961365, -0.025455674156546593, 0.028283139690756798, 0.018807239830493927, 0.002887617563828826, 0.01795932836830616, 3.7648024559020996, 1.7662726640701294, -1.9333006143569946, -4.098021507263184, -5.585557460784912, -4.562807083129883, -3.1299688816070557, -4.089445114135742, -4.073173522949219, -8.343255996704102, -3.3309409618377686, -6.909590721130371, -4.873885631561279, -3.7720658779144287, -1.3664735555648804, 1.4663811922073364, -0.8835719227790833, -2.5252997875213623, 1.2999786138534546, 3.668666124343872, -0.5455557107925415, -0.8576385974884033, -1.630938172340393, -0.6698638796806335, 0.019925398752093315, 0.057745590806007385, -0.08128782361745834, -0.24943578243255615, 0.2673746645450592, 0.2782420217990875, 4.796852111816406, 2.851125478744507, 0.43346208333969116, 0.46827855706214905, -2.132455825805664, -2.451676607131958, -0.23236681520938873, -0.426010400056839, 1.0583268404006958, 0.3317682147026062, -1.4135222434997559, -2.617279291152954, -2.5184943675994873, -0.8709608316421509, -0.09907139092683792, 1.2603942155838013, 0.7452568411827087, 1.129736065864563, 0.2907260060310364, -1.1654260158538818, -0.8008425831794739, -1.82178795337677, 0.007641099859029055, 0.06226431950926781, 0.5026721358299255, 3.3858535289764404, 1.0540027618408203, 0.8232678174972534, 0.4420831501483917, 2.0644898414611816, 0.2590799927711487, 0.7349486947059631, 0.14425437152385712, 2.168185234069824, 1.2935338020324707, 1.5181738138198853, 1.7647647857666016, 2.2138471603393555, 2.021761894226074, 1.6827996969223022, 3.5637972354888916, 2.357191324234009, 0.4253087043762207, 2.4461944103240967, 1.9377881288528442, -1.9665933847427368, -2.238006353378296, -4.653286457061768, 0.9670466780662537, -1.375554084777832, -1.6718711853027344, 0.24172961711883545, 0.7798106670379639, 4.905407428741455, 6.139975547790527, 0.730895459651947, -4.910943031311035, -0.2776520848274231, -2.601053237915039, 1.1045247316360474, 0.42810291051864624, 2.6775569915771484, 1.3274558782577515, 2.7626969814300537, 1.1074110269546509, 0.17858175933361053, 1.5787036418914795, 1.8811894655227661, 1.361656665802002, 1.5682239532470703, 0.027126764878630638, 0.2799760401248932, -0.04447703808546066, -3.401289701461792, -3.338334321975708, -3.5296926498413086, -1.169433355331421, 1.3794982433319092, -1.3930805921554565, -3.291858434677124, -0.3182410001754761, 0.25968530774116516, 3.041571617126465, 0.1019263043999672, -1.0805240869522095, -0.957222044467926, -2.2251696586608887, 1.0724014043807983, 0.2437199503183365, 0.3315075933933258, 1.7762863636016846, 0.5985113382339478, 1.095603108406067, 0.737604022026062, 0.4569709300994873, 1.2159316539764404, 0.7629156112670898, 0.4057489335536957, -0.19885438680648804, -0.7229362726211548, -0.6340650320053101, -0.11172808706760406, -2.4550297260284424, -0.8183272480964661, -2.972069501876831, 0.516023576259613, 0.9847683906555176, 0.6307867169380188, 2.658296823501587, 0.10142003744840622, 0.6171447038650513, 1.6540882587432861, -1.5906838178634644, 0.05255644768476486, 0.8287210464477539, -0.34582623839378357, -0.656359851360321, 2.1172304153442383, 0.5194934010505676, 1.2421083450317383, 0.8752332925796509, 0.2317715436220169, 0.8357101678848267, -0.15469709038734436, 0.6473483443260193, 0.22277840971946716, -0.3845624327659607, -0.9146097898483276, -1.9984325170516968, 1.0477291345596313, -1.1939395666122437, -0.18038828670978546, -1.3314800262451172, -3.3809075355529785, 0.4014303684234619, 0.415830135345459, 2.971139430999756, -1.8245925903320312, 0.9227510690689087, -0.26549914479255676, 1.5297802686691284, 1.4921296834945679, -0.33945709466934204, -0.007261321879923344, 0.8350431323051453, -0.05345819145441055, -0.4506464898586273, 0.10266783088445663, -0.5734396576881409, -1.8565846681594849, -3.2076921463012695, -0.3075177073478699, -1.8696956634521484, -0.48680052161216736, -0.4919467270374298, 0.1580783575773239, -0.08093763887882233, 0.06789969652891159, -0.48224973678588867, -3.668278455734253, 4.96882438659668, 0.2818180322647095, 0.2051069438457489, 1.16521155834198, -7.013250350952148, 1.8529926538467407, -2.119086742401123, -1.3068870306015015, 0.1908276230096817, 0.8047544360160828, 0.26183024048805237, 1.447206974029541, 0.7831860184669495, 0.36742308735847473, 0.09787091612815857, 0.10133074969053268, 0.2779141664505005, 0.03990749642252922, -1.3027116060256958, -0.37104374170303345, 1.8411915302276611, 1.5834816694259644, 1.7133420705795288, 2.035806179046631, 2.2522571086883545, 1.5938185453414917, 0.9579650163650513, -2.8538126945495605, 0.39818111062049866, 2.89736008644104, -0.3025650978088379, 0.4424557387828827, 1.0600172281265259, 1.1764154434204102, -4.377314567565918, 2.750880718231201, 0.3083275556564331, 1.386027216911316, -0.5330387353897095, -0.45835137367248535, 0.04832061752676964, -1.0153470039367676, -0.6461107134819031, -3.4722776412963867, -1.8581914901733398, 0.06548305600881577, 0.8901733756065369, -1.3131320476531982, 0.5159255266189575, 2.164210319519043, 0.7395808100700378, 0.850787341594696, 1.650098443031311, 1.6820433139801025, 4.798263072967529, -2.870194911956787, 0.9543958306312561, 2.860964775085449, 1.8285492658615112, -2.1157772541046143, 0.5595803260803223, 1.1247576475143433, -1.6265230178833008, 3.2317347526550293, -0.19535920023918152, -0.23249809443950653, 1.1117626428604126, -0.18091580271720886, -0.5371168255805969, -0.30137544870376587, -1.3375893831253052, -1.7205874919891357, 1.3349299430847168, 1.315475583076477, 0.7167014479637146, 0.5517693161964417, 0.7020592093467712, 1.3188663721084595, 0.21615102887153625, 1.1343296766281128, 1.5808321237564087, 1.6692057847976685, -2.3926444053649902, -6.143293857574463, -0.1789955049753189, 0.5152631998062134, 0.17923389375209808, -1.9500561952590942, 0.776422917842865, -0.6126686334609985, 5.364556312561035, 4.195761203765869, -2.9819207191467285, -0.4108999967575073, 0.32243266701698303, -0.10187853127717972, -0.06931721419095993, 0.5490934252738953, -0.6290539503097534, -0.4465153217315674, 1.0527894496917725, -0.40312060713768005, 1.3965357542037964, 0.9819498062133789, -0.019797876477241516, 0.12273330986499786, -0.3129408657550812, 0.6348773837089539, -0.09314457327127457, 0.1869010478258133, -4.508673667907715, -7.010249137878418, -2.7865402698516846, -0.4732632339000702, 0.0395156592130661, -1.4878655672073364, 0.7735730409622192, -5.295774459838867, 0.8358086943626404, 2.7069718837738037, -0.22555318474769592, 1.6365134716033936, -0.2595442235469818, 1.089609980583191, -0.543149471282959, 0.7718207836151123, 1.4124974012374878, 0.15303905308246613, -1.0463179349899292, -0.44754379987716675, 0.8587022423744202, 0.41916266083717346, 0.7634469270706177, 0.5579792857170105, -0.6284605860710144, -0.41514071822166443, 0.0696362778544426, -0.6453292369842529, -0.9008747935295105, -6.557107448577881, -2.637552499771118, 4.690508842468262, -0.1317649781703949, 0.4472099542617798, 0.24308671057224274, -2.8675034046173096, -4.0708417892456055, 1.9705530405044556, 0.41385915875434875, -1.1651852130889893, -0.586349606513977, 2.18668794631958, -0.012539766728878021, 3.027176856994629, 3.304638147354126, 0.8712692260742188, -0.7324137687683105, -0.4749458134174347, -0.555717945098877, -0.704252302646637, -0.6034838557243347, 0.20054851472377777, -1.1428208351135254, -1.5218665599822998, -2.3442513942718506, -0.9290998578071594, -1.669109582901001, -5.690195083618164, -2.004828929901123, -0.2301412671804428, -0.8561111092567444, -0.004860768560320139, 1.595125436782837, -1.3645009994506836, -2.4911434650421143, -5.912605285644531, -2.7033963203430176, -0.9626268744468689, -0.4126625657081604, 0.44632336497306824, -1.1337498426437378, 0.38088104128837585, 0.6742392182350159, 2.313727855682373, 0.6267449259757996, -0.7602620124816895, 0.9249973893165588, -1.1807197332382202, -0.5626646280288696, 0.3813127875328064, 0.4010179340839386, -0.7629892826080322, -0.9352298974990845, -0.3156381845474243, -3.701223373413086, -5.597191333770752, -1.778940200805664, -0.2811609208583832, -3.00408673286438, 5.871786594390869, 1.4431408643722534, -0.1390780508518219, -5.3191070556640625, -2.68927264213562, -3.246769905090332, -0.15460947155952454, -1.2565948963165283, -0.9224385023117065, -1.9888511896133423, 0.8689031004905701, 0.7268915176391602, -1.1068110466003418, -1.0172162055969238, -0.549303412437439, -0.22383993864059448, -0.2715916335582733, 0.5402072072029114, -0.3794479966163635, -1.4994632005691528, 0.7102952003479004, 0.793870210647583, -1.358757734298706, -4.144859313964844, -8.152037620544434, -0.1646072417497635, -0.8654701113700867, -2.5100131034851074, 0.05089863762259483, 0.2598813474178314, 4.107508182525635, -1.4298756122589111, -3.89133882522583, -5.736487865447998, -1.1109563112258911, 0.3960212171077728, -1.785078525543213, -1.4915404319763184, -0.808189868927002, -0.06515581160783768, 0.9819816946983337, -1.7884517908096313, -1.0964690446853638, -0.42267295718193054, 0.30150458216667175, 0.5199055671691895, 0.1598254144191742, 0.9252046346664429, 0.5419384241104126, -0.3783871531486511, 1.0376107692718506, -4.217650890350342, -6.843729496002197, 0.39823323488235474, -5.4968461990356445, -1.13383948802948, 0.021961674094200134, -0.6469960808753967, 0.12385920435190201, 1.1002641916275024, -5.84211540222168, -6.978137493133545, -5.07857608795166, -2.0762081146240234, -5.546792507171631, -2.4800851345062256, -2.783834457397461, -2.9978573322296143, -2.7571957111358643, -1.228052020072937, -0.5468626618385315, -1.0420544147491455, -0.4636482894420624, 0.95688796043396, 0.30994901061058044, 0.49730902910232544, 0.48873013257980347, -2.9049923419952393, 1.9805991649627686, -2.183009386062622, -1.076594591140747, 2.306339740753174, -5.633616924285889, 0.021208301186561584, -0.040251635015010834, 1.1166527271270752, 1.1462198495864868, 6.293715476989746, 0.26958441734313965, -1.545587182044983, -1.7281707525253296, -2.149740219116211, -4.457511901855469, -2.9123218059539795, -0.021564722061157227, -2.9824016094207764, -0.5619325041770935, -1.0250877141952515, -0.418888121843338, -0.3720196485519409, 0.46358543634414673, -1.8253240585327148, 0.2303342968225479, -0.7502191066741943, 1.0036243200302124, -0.7485994696617126, 0.7215250134468079, -2.614366054534912, 0.7878719568252563, 1.655236840248108, -7.9741740226745605, 0.025708943605422974, 0.016460368409752846, -0.08821588009595871, 0.6868685483932495, 2.5107076168060303, 0.9842933416366577, 0.8072794675827026, 2.5798566341400146, 0.7364354729652405, -0.6345558166503906, 1.0240623950958252, 3.2400319576263428, 0.05087396129965782, 0.774455726146698, -1.4006407260894775, -0.17028309404850006, -1.3627461194992065, -1.1864255666732788, -1.1903355121612549, 0.12841211259365082, -2.1914901733398438, 0.8998013734817505, -3.086249589920044, 0.26364263892173767, 0.8251637816429138, 0.8773511648178101, 1.0328019857406616, -9.208928108215332, 0.026543620973825455, 0.03136591985821724, -0.008945067413151264, -0.6951277256011963, -1.8287420272827148, -1.5767828226089478, 1.9112732410430908, 1.34796142578125, 0.5236486792564392, 0.6784406900405884, -1.4752362966537476, -0.2382848858833313, -0.3640366196632385, 0.07710561901330948, -0.7747937440872192, -0.8494012951850891, -1.2930079698562622, -2.5431909561157227, -1.502132534980774, -1.8500034809112549, -1.283300757408142, 0.4003242254257202, -1.1479443311691284, 2.72218656539917, 2.2948172092437744, 3.225393772125244, -0.8943889141082764, -6.4600605964660645, -0.04580184444785118, -0.017307069152593613, 0.0188665259629488, 2.7658894062042236, -0.7422838807106018, 3.1432151794433594, 3.6708414554595947, 0.11796970665454865, 1.7558364868164062, 2.5539097785949707, -1.398603081703186, 0.7571476697921753, -0.07938656210899353, 0.8505336046218872, 1.1496151685714722, -0.901224672794342, 1.0150997638702393, 0.10087671875953674, -0.11581474542617798, -1.5345096588134766, -2.6768951416015625, 1.3965070247650146, -1.0040602684020996, -1.6131165027618408, 5.117870330810547, -0.695164144039154, -4.057109355926514, -4.377062797546387, -0.08470839262008667, -0.010571825318038464, 0.08330223709344864, 4.518761157989502, -1.786559820175171, 2.9724929332733154, 5.129063606262207, -0.1973031759262085, 0.2936175763607025, 5.6444315910339355, 1.3989094495773315, 0.5972431898117065, 2.3521695137023926, 2.687392473220825, 1.7616009712219238, 0.5719348788261414, 0.8549079895019531, 1.404422402381897, 1.1603360176086426, 0.9949233531951904, 3.5249767303466797, 2.793146848678589, 1.3594417572021484, -1.0616430044174194, 0.8202579617500305, -1.8592126369476318, -0.02571418508887291, -4.336416721343994, 0.06505853682756424, 0.04197769612073898, -0.03732740506529808, -0.01554612535983324, 4.85498571395874, 0.1514185518026352, 0.5841660499572754, 3.18666672706604, 7.51307487487793, 7.525029182434082, 8.436949729919434, 6.897067546844482, 5.274625301361084, 8.508648872375488, 6.740236759185791, 8.29887580871582, 3.433356285095215, 5.3411030769348145, 6.608513832092285, 5.314844131469727, 3.1387898921966553, 9.132018089294434, 5.81117057800293, 7.658222675323486, 5.51689338684082, 2.719944715499878, 1.4600727558135986, -0.051903143525123596, -0.07775720208883286, 0.050202932208776474, 0.04487643018364906, 0.024330122396349907, -0.022074636071920395, 1.5087647438049316, 2.185028314590454, 6.2470221519470215, 5.461075782775879, 6.162725448608398, 0.837047278881073, 1.142234444618225, 3.7866220474243164, 4.119087219238281, 3.0084004402160645, 9.663212776184082, 7.196322441101074, 5.9285407066345215, 1.8557401895523071, 3.4985971450805664, 3.3116915225982666, 2.5220162868499756, 0.9407740831375122, 1.311340570449829, -1.2087117433547974, 0.004454103298485279, 0.0343409888446331, 0.028124550357460976, 0.002263379981741309}, {0.04898068308830261, -0.06914831697940826, -0.026300529018044472, -0.0437270812690258, 0.04301750287413597, -0.06354531645774841, -0.002127416431903839, -0.001957622589543462, -0.007506618741899729, -0.08330652117729187, -0.026017867028713226, 0.030815202742815018, 0.0013392355758696795, 0.062064822763204575, -0.0839790552854538, 0.05228538438677788, -0.0397777259349823, 0.005678321700543165, -0.07269404828548431, 0.011786376126110554, 0.06502688676118851, 0.01420243177562952, 0.007145036943256855, 0.001684788498096168, -0.07564868777990341, -0.06598988175392151, 0.07353445887565613, -0.015573437325656414, 0.08393044024705887, 0.03591195121407509, -0.0012925048358738422, 0.04302683845162392, -0.06976106762886047, -0.0023484567645937204, -0.05141442269086838, -0.042492933571338654, -0.0016065945383161306, 0.059553083032369614, -0.08092167973518372, 0.018871918320655823, -0.06651166826486588, -0.016213245689868927, -0.0205211341381073, 0.06527487188577652, 0.06061038002371788, -0.06852184236049652, 0.004100541118532419, -0.08669343590736389, 0.07038939744234085, -0.0035128716845065355, 0.08701053261756897, 0.011998035944998264, -0.0803852304816246, -0.04077412560582161, -0.002814569976180792, -0.0491551011800766, -0.014996259473264217, 0.08438768982887268, -0.027148660272359848, 0.0714600682258606, 0.06332726776599884, 0.021656563505530357, 0.0665859580039978, 0.04066631570458412, 0.085389643907547, 0.04815000295639038, 0.004966306034475565, -0.07425738126039505, -0.07918816059827805, -0.02085963636636734, -0.06523895263671875, -0.004916691686958075, 0.02282542549073696, 0.08630818873643875, 0.09695935994386673, 0.033412933349609375, 0.023860635235905647, -0.013429272919893265, 0.03429851308465004, -0.07183606922626495, -0.056043174117803574, 0.0335017554461956, 0.02882460504770279, 0.08088074624538422, -0.0312742181122303, -0.06698526442050934, 5.878624506294727e-05, -0.06609360128641129, 0.02344767190515995, -0.001429485040716827, -0.04299353435635567, 0.0715332105755806, 0.09112086892127991, 0.09279458224773407, 0.10253051668405533, -0.018805356696248055, 0.005732414778321981, -0.06950414925813675, -0.0664442703127861, -0.05204318091273308, 0.13625897467136383, -0.02010258473455906, 0.08787877857685089, 0.06410612910985947, 0.13956095278263092, 0.05411795899271965, 0.027898021042346954, 0.02040846273303032, -0.061620548367500305, 0.07757985591888428, -0.07103231549263, -0.08518325537443161, 0.04511253535747528, 0.02668835036456585, 0.025389065966010094, 0.08385366946458817, 0.08662696182727814, -0.021331751719117165, -0.00031003824551589787, 0.013022958301007748, 0.11922823637723923, 0.1382059007883072, 0.011572647839784622, 0.05376531556248665, 0.04763570800423622, 0.0641208067536354, 0.07930221408605576, 0.016729170456528664, 0.03736814484000206, -0.04255281761288643, -0.024428492411971092, -0.06418833881616592, -0.1464783251285553, 0.02768433280289173, -0.06619086861610413, -0.04176077991724014, 0.013036935590207577, 0.00042559279245324433, 0.011202424764633179, 0.06899639219045639, 0.025895752012729645, 0.038620684295892715, -0.012223618105053902, -0.0714794248342514, -0.004397893324494362, -0.022341426461935043, -0.10794173181056976, -0.09536992013454437, -0.09243036806583405, -0.14197425544261932, 0.03513949736952782, -0.050342485308647156, 0.033805880695581436, -0.02905658818781376, -0.04102335870265961, -0.04028744623064995, 0.02190565876662731, -0.04234439134597778, 0.012871303595602512, -0.022615933790802956, -0.032336633652448654, -0.0849732980132103, -0.07969016581773758, -0.005713320337235928, 0.09494206309318542, 0.07611680030822754, -0.03418712690472603, -0.08080819249153137, 0.0006508723017759621, 0.06510931998491287, -0.07663027942180634, -0.04777826741337776, 0.0011568699264898896, -0.050613295286893845, -0.015616854652762413, -0.05951516702771187, -0.07077370584011078, -0.10268249362707138, -0.04725752770900726, -0.0022477188613265753, -0.16478662192821503, -0.13169041275978088, -0.11183800548315048, -0.14061175286769867, -0.14371006190776825, -0.09100017696619034, 0.006340275052934885, -0.05422360450029373, -0.02360188588500023, -0.0015616685850545764, -0.05112785845994949, -0.05928993225097656, -0.016727132722735405, 0.0827370211482048, -0.012233921326696873, 0.04560108482837677, -0.07560132443904877, -0.028335679322481155, -0.07585373520851135, -0.0659719705581665, -0.019512824714183807, 0.029531896114349365, -0.09192711859941483, -0.07538032531738281, -0.03076162561774254, -0.15804702043533325, -0.04577222838997841, -0.10350368916988373, -0.05112007260322571, -0.04729953780770302, 0.01207591500133276, -0.05087849125266075, -0.013920354656875134, -0.06378532201051712, -0.1381806582212448, -0.02178581804037094, -0.09638670831918716, -0.11070171743631363, -0.03123694658279419, -0.12764300405979156, -0.0704273134469986, -0.04612845554947853, 0.027304932475090027, 0.016969744116067886, 0.054730359464883804, -0.07796552777290344, 0.07463791221380234, 0.018061643466353416, -0.03609492629766464, 0.0191954355686903, -0.04757271707057953, -0.11480247974395752, -0.031218037009239197, -0.014186963438987732, -0.0014673782279714942, -0.06500831246376038, -0.09847443550825119, -0.0950118824839592, -0.004203104414045811, -0.08836402744054794, -0.07624460011720657, 0.008913208730518818, -0.0945899561047554, -0.12877139449119568, -0.05874064564704895, -0.05715528503060341, -0.031353067606687546, 0.02580128237605095, -0.04240463301539421, -0.07020040601491928, 0.02495206519961357, -0.08362811803817749, 0.08223670721054077, 0.01896681822836399, 0.03467893227934837, 0.0300995372235775, 0.05854948237538338, -0.07154292613267899, -0.14204050600528717, -0.07826339453458786, -0.08279205858707428, -0.06909796595573425, -0.04021421819925308, -0.09911616146564484, 0.008643630892038345, 0.012393628247082233, -0.08076439052820206, -0.07072369754314423, -0.09757786244153976, 0.0036818068474531174, -0.07982615381479263, -0.11813197284936905, -0.1176481619477272, -0.07922433316707611, -0.10615198314189911, -0.01825278252363205, -0.09861884266138077, 0.034731145948171616, -0.07216057181358337, 0.040877193212509155, -0.014056351967155933, -0.02616472728550434, -0.0038109119050204754, -0.024944812059402466, 0.04873523488640785, -0.07667093724012375, -0.10343889147043228, 0.011453678831458092, -0.009588832966983318, -0.09475098550319672, -0.04218863323330879, -0.006701155565679073, -0.04982933774590492, 0.013277819380164146, 0.014538929797708988, -0.07967139780521393, -0.031854089349508286, -0.14473241567611694, -0.14509841799736023, -0.06553161144256592, -0.1365695297718048, -0.11161264032125473, 0.003254925599321723, -0.11222345381975174, -0.09289096295833588, -0.07201817631721497, -0.023224160075187683, -0.023298297077417374, -0.06829001009464264, -0.023381715640425682, 0.065821573138237, 0.03596510365605354, 0.0789911299943924, -0.1254453957080841, -0.01243037823587656, -0.08402970433235168, -0.09866396337747574, -0.01871197484433651, -0.0869256854057312, -0.06977053731679916, -0.09626985341310501, 0.00804145447909832, -0.057750850915908813, -0.01165828201919794, -0.049572981894016266, 0.08223877847194672, 0.02760288305580616, -0.07715906202793121, 0.026185691356658936, -0.14344343543052673, -0.00866006314754486, -0.04765761271119118, 0.0005446731229312718, -0.021261051297187805, 0.004647763445973396, 0.029625963419675827, -0.044841960072517395, -0.08123715221881866, -0.04566643014550209, 0.020567750558257103, -0.007802015170454979, -0.0806741863489151, 0.02462461031973362, 0.0018889233469963074, 0.010511662811040878, -0.09186521917581558, -0.08827739208936691, 0.02732311189174652, -0.1482599526643753, -0.009656584821641445, -0.0041426196694374084, 0.0006551017868332565, -0.1522449404001236, 0.006721960846334696, -0.024038325995206833, 0.0029196881223469973, -0.038521409034729004, -0.04161055386066437, -0.01837827078998089, -0.11092902719974518, -0.0392085537314415, 0.00908106192946434, 0.07132783532142639, 0.015108930878341198, 0.057280201464891434, 0.04194682836532593, 0.038698598742485046, 0.06327784061431885, 0.03220434859395027, -0.0463121272623539, 0.01615488901734352, 0.015010187402367592, -0.07154674082994461, -0.005011199042201042, 0.0361725352704525, 0.05611329525709152, 0.0031297574751079082, -0.10254419595003128, -0.012172402814030647, -0.09057127684354782, 0.001671337871812284, -0.05494160205125809, -0.08573992550373077, -0.08897989243268967, -0.12342122197151184, 0.026825428009033203, 0.013973058201372623, -0.007289815228432417, -0.12353973090648651, 0.07776885479688644, -0.05913160368800163, 0.028396936133503914, 0.07561734318733215, 0.054754845798015594, 0.08090955018997192, 0.07355893403291702, 0.05202554538846016, -0.028157716616988182, -0.014932489022612572, -0.03649364784359932, -0.08511856198310852, -0.010446769185364246, 0.03690828010439873, 0.10325774550437927, 0.06364321708679199, -0.04353618621826172, -0.029627038165926933, -0.017805524170398712, 0.027587266638875008, 0.06761094182729721, -0.018186070024967194, -0.09276097267866135, -0.11504333466291428, 0.020064331591129303, -0.06932759284973145, 0.016825448721647263, -0.07949255406856537, -0.06678589433431625, 0.0215197391808033, -0.004853322170674801, -0.06978778541088104, 0.0028926858212798834, -0.018901044502854347, 0.047411467880010605, 0.07472982257604599, -0.005157778039574623, -0.13857781887054443, -0.011528811417520046, 0.004616433288902044, -0.05783415585756302, 0.0543220229446888, 0.06549284607172012, 0.03157256543636322, -0.11546119302511215, -0.04622826352715492, -0.04707929491996765, 0.05812138319015503, 0.02880534529685974, -0.05506032332777977, -0.0960482656955719, -0.1423971801996231, 0.005585071165114641, -0.11971050500869751, 0.0066441865637898445, -0.08971132338047028, -0.04323628172278404, -0.06648410856723785, 0.028174670413136482, 0.07824360579252243, 0.048563651740550995, -0.06068379059433937, -0.009936559945344925, 0.04023147374391556, -0.10179252922534943, 0.009805295616388321, -0.12778142094612122, -0.09208010137081146, -0.044005900621414185, 0.04164241626858711, 0.08515868335962296, 0.0671699270606041, -0.0519486628472805, -0.13235265016555786, 0.1421167552471161, 0.1078014075756073, 0.10036955028772354, -0.18388088047504425, 0.006449086591601372, -0.01853034645318985, 0.030724409967660904, -0.12729640305042267, -0.043692681938409805, -0.03762999549508095, 0.08453571796417236, -0.053971339017152786, 0.03919103741645813, 0.0008353132288902998, 0.02156917005777359, 0.08568421006202698, -0.04162535071372986, 0.0678749531507492, -0.07313850522041321, -0.006829019635915756, 0.014937101863324642, -0.0829305425286293, 0.1431841403245926, 0.049759164452552795, 0.06697386503219604, -0.12804003059864044, -0.06769910454750061, -0.010503998026251793, 0.0824374109506607, 0.009944388642907143, 0.038483135402202606, -0.06710831075906754, -0.010579672642052174, -0.028222613036632538, 0.003985826391726732, -0.09280127286911011, -0.051246754825115204, -0.0608498677611351, -0.005361389834433794, -0.007414471358060837, 0.07969009131193161, 0.0342940092086792, -0.03177037090063095, -0.03526018559932709, -0.0814220979809761, -0.13850443065166473, -0.13677184283733368, -0.12739239633083344, -0.10378345847129822, -0.09155654907226562, 0.07130640745162964, 0.12343814224004745, -0.09767446666955948, -0.08379145711660385, -0.10999801754951477, -0.15872234106063843, 0.011870434507727623, -0.005021180957555771, -0.018752992153167725, -0.14561285078525543, -0.1563633680343628, 0.005540401209145784, 0.014968992210924625, -0.11834859102964401, -0.032039038836956024, -0.01859586127102375, -0.06240323185920715, 0.0682263970375061, -0.08736899495124817, -0.020266273990273476, 0.015997065231204033, 0.010280209593474865, 0.07694625109434128, 0.012624166905879974, -0.07645333558320999, -0.04298461973667145, -0.01566523127257824, -0.13652127981185913, -0.04466765746474266, 0.04332645609974861, -0.01979430392384529, -0.07459557801485062, -0.1186651736497879, -0.10672575235366821, -0.02051439881324768, -0.010323183611035347, -0.015483320690691471, -0.030144929885864258, -0.05776487663388252, -0.07787060737609863, 0.03734325245022774, -0.0752183347940445, 0.01597451977431774, -0.05604935064911842, 0.08580025285482407, 0.07455045729875565, -0.07313471287488937, -0.08110126852989197, -0.03851841762661934, 0.08582981675863266, 0.07330545783042908, 0.006600480526685715, -0.12250271439552307, -0.003275718307122588, -0.007437195163220167, -0.03340112790465355, -0.14299148321151733, -0.00017602767911739647, -0.14631764590740204, -0.0713394284248352, -0.14138035476207733, -0.029579855501651764, -0.057639699429273605, 0.03136174753308296, -0.14324617385864258, -0.10350809246301651, -0.11601395159959793, -0.09984848648309708, 0.06143750250339508, 0.017419546842575073, 0.03214801475405693, -0.05069010332226753, -0.08069309592247009, -0.06081615760922432, -0.08492280542850494, 0.04478088393807411, -0.008588318713009357, 0.04538576677441597, 0.026927417144179344, 0.07533560693264008, -0.059337008744478226, -0.026273448020219803, -0.03154664486646652, -0.011938455514609814, 0.007013475056737661, -0.023579005151987076, -0.10782226920127869, -0.10873192548751831, -0.1436866819858551, -0.08061334490776062, -0.05500423535704613, -0.12793785333633423, -0.1593535840511322, -0.048487670719623566, -0.13895945250988007, -0.08419117331504822, -0.11023645102977753, -0.06561894714832306, -0.001983132679015398, 0.07031206041574478, -0.0650394931435585, -0.08739475160837173, 0.07826672494411469, 0.07529990375041962, -0.08085652440786362, -0.06625296920537949, -0.015031586401164532, 0.01888200268149376, -0.08621960878372192, -0.13886700570583344, 0.033158428966999054, 0.028522048145532608, -0.06705167144536972, 0.021400421857833862, -0.0022378547582775354, -0.07007826119661331, 0.011466380208730698, -0.031450096517801285, -0.13689011335372925, -0.019338266924023628, 0.08727490901947021, -0.024747230112552643, 0.024400778114795685, -0.1374424695968628, -0.07219097763299942, -0.009346782229840755, -0.04461880400776863, -0.08677337318658829, -0.0833837240934372, -0.004021476488560438, 0.009536584839224815, 0.02601606771349907, -0.015472321771085262, 0.006512060295790434, -0.050908662378787994, -0.01569799706339836, 0.03996977582573891, -0.004012159071862698, -0.10762391984462738, 0.021376973018050194, -0.11478480696678162, -0.13350336253643036, -0.004508259240537882, -0.0875725969672203, -0.012462465092539787, -0.017909586429595947, 0.08668462932109833, -0.0028865663334727287, 0.06160490959882736, 0.10596658289432526, -0.11573264747858047, -0.13856874406337738, -0.14034715294837952, 0.0017343746731057763, -0.07693726569414139, 0.005675171967595816, -0.06167949363589287, -0.07075200974941254, 0.06783435493707657, 0.04574448987841606, 0.046894632279872894, -0.03725031018257141, -0.012144146487116814, 0.007459877524524927, 0.05772135406732559, -0.11690030246973038, -0.05863421410322189, -0.036188941448926926, -0.1507897973060608, -0.08779752999544144, -0.010374014265835285, -0.09339272975921631, 0.02336469478905201, -0.07850188761949539, 0.0003456746635492891, -0.05466533452272415, 0.07459617406129837, 0.0178352203220129, -0.01746107079088688, 0.008494378067553043, -0.03669659048318863, 0.08716399222612381, -0.07997633516788483, 0.06327278167009354, 0.06170039251446724, 0.07038920372724533, -0.07027328759431839, -0.060401760041713715, 0.0680641382932663, 0.06263908743858337, -0.022539356723427773, -0.06721698492765427, -0.006646302528679371, -0.08576785027980804, 0.032905153930187225, -0.06163845583796501, 0.13457363843917847, 0.13903947174549103, 0.14027714729309082, 0.10013838857412338, -0.002190239494666457, -0.14697536826133728, 0.0902501717209816, 0.11161454766988754, 0.003947424236685038, 0.007508447859436274, -0.04178938642144203, -0.07709743827581406, -0.06359849870204926, 0.07127398997545242, -0.006768849678337574, -0.030774354934692383, 0.08270170539617538, 0.009690125472843647, 0.0591319240629673, -0.020722005516290665, -0.05993351712822914, -0.06100848689675331, -0.0503772534430027, 0.05067739263176918, -0.04150695353746414, 0.06257782876491547, -0.012717846781015396, 0.015179125592112541, 0.0960741937160492, 0.10620911419391632, 0.015375730581581593, 0.07570245116949081, 0.026735281571745872, -0.10307082533836365, -0.13750305771827698, 0.07895252853631973, -0.0018852654611691833, 0.06250323355197906, 0.05495612695813179, 0.08419302850961685, 0.054376859217882156, -0.0025981080252677202, -0.00531570753082633, 0.028987521305680275, 0.05365509167313576, -0.0636046752333641, -0.06809832900762558, 0.07396242022514343, 0.026397621259093285, -0.00824000220745802, -0.03395698219537735, 0.019058819860219955, -0.011449343524873257, 0.011199817061424255, 0.005993485450744629, -0.0802670568227768, -0.03665812686085701, -0.0008802085067145526, 0.07615038752555847, 0.054974932223558426, -0.07504307478666306, -0.06584017723798752, -0.033068060874938965, 0.07669480890035629, 0.03441120684146881, -0.07266426831483841, -0.06535371392965317, 0.05343730002641678, -0.07678799331188202, -0.04827100411057472, 0.030429238453507423, -0.06317581236362457, 0.027847472578287125, 0.026325423270463943, -0.06668423116207123}, {0.07921152561903, -0.0842001661658287, -0.06566222012042999, 0.021534964442253113, -0.04997596889734268, -0.06572520732879639, -0.07998131960630417, 0.024504635483026505, 0.05181335285305977, 0.04871901869773865, 0.004509876016527414, 0.004654823336750269, -0.04168106988072395, 0.059567682445049286, 0.07731688767671585, 0.0011626578634604812, 0.06047102436423302, -0.07329374551773071, 0.020090462639927864, 0.008306923322379589, 0.0874050110578537, 0.04690280929207802, -0.02451271191239357, 0.04512679949402809, -0.039874475449323654, 0.056442104279994965, -0.021691644564270973, -0.061597343534231186, -0.0655883252620697, -0.08439384400844574, -0.012082387693226337, 0.06522203236818314, -0.027952812612056732, -0.051932863891124725, -0.15321391820907593, -0.14088690280914307, -0.17386308312416077, 0.1538168489933014, -0.02510381117463112, 0.22870993614196777, 0.047379106283187866, -1.7159245014190674, 2.4137156009674072, 2.550525665283203, -0.6474290490150452, -4.604474067687988, -2.631866931915283, -0.1009102389216423, -0.2394193708896637, 0.004931932780891657, -0.06944900006055832, -0.02917095087468624, 0.04978441819548607, 0.06412964314222336, 0.003973291255533695, -0.05449288710951805, 0.06849908083677292, 0.02036483958363533, 0.031921859830617905, 0.06447193771600723, 0.062087900936603546, -1.3174490928649902, -1.3847042322158813, -1.1769399642944336, -3.658529281616211, -5.8591837882995605, -4.031059741973877, -2.6511054039001465, -1.2182493209838867, -5.014752388000488, 3.3866231441497803, 8.31964111328125, 4.812385082244873, -7.3286590576171875, -8.642598152160645, -4.055761814117432, -2.190822124481201, -1.09171462059021, -1.2435671091079712, -0.39404889941215515, -0.16518081724643707, -0.06330534815788269, 0.022847482934594154, 0.0030936768744140863, -0.07756077498197556, 0.0007280755089595914, 2.2456605434417725, 2.56986665725708, -1.2621262073516846, -1.8739447593688965, -0.07630984485149384, 1.9723540544509888, 0.27515745162963867, -1.3166476488113403, 0.6236517429351807, -0.19221176207065582, 2.7759952545166016, 0.5893292427062988, -2.223081350326538, 0.5591832399368286, 0.9730833172798157, -1.024537205696106, -0.915900468826294, -4.76381778717041, 2.384101629257202, 1.2666845321655273, 0.5108646750450134, 2.62534499168396, -2.5280885696411133, -0.3564291000366211, -1.8821746110916138, -0.005953152664005756, 